svm_type c_svc
kernel_type rbf
gamma 4
nr_class 2
total_sv 6590
rho -53.0989
label 1 -1
nr_sv 3493 3097
SV
32768 1:0.50857715 2:0.13776439 3:85 
10428.83216644778 1:0.50857715 2:0.13776439 3:69 
29894.75548982169 1:0.50857715 2:0.13776439 3:39 
32768 1:0.50857715 2:0.13776439 3:106 
32546.28125333284 1:0.50857715 2:0.13776439 3:82 
32768 1:0.50857715 2:0.13776439 3:90 
32768 1:0.50857715 2:0.13776439 3:90 
32768 1:0.50857715 2:0.13776439 3:46 
32768 1:0.50857715 2:0.13776439 3:69 
32716.17242626521 1:0.50857715 2:0.13776439 3:99 
367.3050623134916 1:0.50857715 2:0.13776439 3:98 
32768 1:0.50857715 2:0.13776439 3:78 
32768 1:0.50857715 2:0.13776439 3:87 
32768 1:0.50857715 2:0.13776439 3:98 
32768 1:0.50857715 2:0.13776439 3:82 
149.2747068946367 1:0.50857715 2:0.13776439 3:95 
684.4036076199422 1:0.50857715 2:0.13776439 3:89 
32768 1:0.50857715 2:0.13776439 3:95 
32768 1:0.50857715 2:0.13776439 3:101 
32768 1:0.50857715 2:0.13776439 3:90 
32768 1:0.50857715 2:0.13776439 3:95 
7333.609005835219 1:0.50857715 2:0.13776439 3:70 
32768 1:0.50857715 2:0.13776439 3:38 
32768 1:0.50857715 2:0.13776439 3:70 
32768 1:0.50857715 2:0.13776439 3:61 
32768 1:0.50857715 2:0.13776439 3:70 
32768 1:0.50857715 2:0.13776439 3:87 
32768 1:0.50857715 2:0.13776439 3:98 
32768 1:0.50857715 2:0.13776439 3:98 
32351.81553308579 1:0.50857715 2:0.13776439 3:100 
32768 1:0.50857715 2:0.13776439 3:69 
4352.988564741051 1:0.50857715 2:0.13776439 3:68 
7837.012873633571 1:0.50857715 2:0.13776439 3:47 
32768 1:0.50857715 2:0.13776439 3:43 
11469.44105901583 1:0.50857715 2:0.13776439 3:49 
23142.66292846 1:0.50857715 2:0.13776439 3:65 
16338.82706715861 1:0.50857715 2:0.13776439 3:58 
32768 1:0.50857715 2:0.13776439 3:116 
32768 1:0.50857715 2:0.13776439 3:107 
32768 1:0.50857715 2:0.13776439 3:89 
2211.133640238218 1:0.50857715 2:0.13776439 3:84 
32768 1:0.50857715 2:0.13776439 3:60 
3033.847066957094 1:0.50857715 2:0.13776439 3:72 
9906.401426846729 1:0.50857715 2:0.13776439 3:54 
32768 1:0.50857715 2:0.13776439 3:46 
32768 1:0.50857715 2:0.13776439 3:55 
32768 1:0.50857715 2:0.13776439 3:56 
32768 1:0.50857715 2:0.13776439 3:87 
32768 1:0.50857715 2:0.13776439 3:82 
2356.981147970291 1:0.50857715 2:0.13776439 3:79 
360.6161603389926 1:0.50857715 2:0.13776439 3:103 
101.1600213484228 1:0.50857715 2:0.13776439 3:96 
3152.992761355495 1:0.50857715 2:0.13776439 3:75 
28549.01803156148 1:0.50857715 2:0.13776439 3:44 
32768 1:0.50857715 2:0.13776439 3:39 
32768 1:0.50857715 2:0.13776439 3:54 
32768 1:0.50857715 2:0.13776439 3:87 
32768 1:0.50857715 2:0.13776439 3:78 
32768 1:0.50857715 2:0.13776439 3:79 
32768 1:0.50857715 2:0.13776439 3:84 
11056.8641863572 1:0.50857715 2:0.13776439 3:66 
32768 1:0.50857715 2:0.13776439 3:41 
32768 1:0.50857715 2:0.13776439 3:72 
32768 1:0.50857715 2:0.13776439 3:69 
32768 1:0.50857715 2:0.13776439 3:79 
32768 1:0.50857715 2:0.13776439 3:78 
32723.05838065675 1:0.50857715 2:0.13776439 3:92 
32768 1:0.50857715 2:0.13776439 3:103 
32768 1:0.50857715 2:0.13776439 3:131 
32768 1:0.50857715 2:0.13776439 3:104 
32768 1:0.50857715 2:0.13776439 3:75 
32768 1:0.50857715 2:0.13776439 3:66 
178.0530274682558 1:0.50857715 2:0.13776439 3:76 
28779.95547466557 1:0.50857715 2:0.13776439 3:49 
194.8905154492237 1:0.50857715 2:0.13776439 3:83 
32768 1:0.50857715 2:0.13776439 3:62 
32768 1:0.50857715 2:0.13776439 3:57 
13402.0687262922 1:0.50857715 2:0.13776439 3:71 
32768 1:0.50857715 2:0.13776439 3:71 
219.5526064572444 1:0.50857715 2:0.13776439 3:168 
989.7591629075205 1:0.50857715 2:0.13776439 3:151 
32546.73945749625 1:0.50857715 2:0.13776439 3:113 
32768 1:0.50857715 2:0.13776439 3:71 
32768 1:0.50857715 2:0.13776439 3:68 
32768 1:0.50857715 2:0.13776439 3:72 
6293.285761203685 1:0.50857715 2:0.13776439 3:45 
32768 1:0.50857715 2:0.13776439 3:62 
32768 1:0.50857715 2:0.13776439 3:55 
32768 1:0.50857715 2:0.13776439 3:66 
10645.19958208981 1:0.50857715 2:0.13776439 3:67 
32768 1:0.50857715 2:0.13776439 3:97 
201.8767460606085 1:0.50857715 2:0.13776439 3:114 
841.1804711046719 1:0.50857715 2:0.13776439 3:159 
32768 1:0.50857715 2:0.13776439 3:87 
32768 1:0.50857715 2:0.13776439 3:67 
29140.48606758266 1:0.50857715 2:0.13776439 3:48 
25845.80956041813 1:0.50857715 2:0.13776439 3:64 
32768 1:0.50857715 2:0.13776439 3:98 
158.8135612484161 1:0.50857715 2:0.13776439 3:122 
32767.82904071664 1:0.50857715 2:0.13776439 3:94 
32768 1:0.50857715 2:0.13776439 3:104 
32763.7276046577 1:0.50857715 2:0.13776439 3:102 
32768 1:0.50857715 2:0.13776439 3:44 
32768 1:0.50857715 2:0.13776439 3:71 
31151.95981984069 1:0.50857715 2:0.13776439 3:83 
32768 1:0.50857715 2:0.13776439 3:122 
32768 1:0.50857715 2:0.13776439 3:131 
32683.93286716076 1:0.50857715 2:0.13776439 3:144 
32768 1:0.50857715 2:0.13776439 3:66 
32768 1:0.50857715 2:0.13776439 3:106 
202.0808722500441 1:0.50857715 2:0.13776439 3:91 
32768 1:0.50857715 2:0.13776439 3:101 
32768 1:0.50857715 2:0.13776439 3:72 
26264.04186230365 1:0.50857715 2:0.13776439 3:92 
32768 1:0.50857715 2:0.13776439 3:113 
32768 1:0.50857715 2:0.13776439 3:122 
32768 1:0.50857715 2:0.13776439 3:71 
32768 1:0.50857715 2:0.13776439 3:61 
32768 1:0.50857715 2:0.13776439 3:65 
32768 1:0.50857715 2:0.13776439 3:103 
50.45893641367147 1:0.50857715 2:0.13776439 3:115 
62.95450304108898 1:0.50857715 2:0.13776439 3:123 
32768 1:0.50857715 2:0.13776439 3:70 
60.75338579564269 1:0.50857715 2:0.13776439 3:119 
32768 1:0.50857715 2:0.13776439 3:114 
32768 1:0.50857715 2:0.13776439 3:119 
32768 1:0.50857715 2:0.13776439 3:37 
32768 1:0.50857715 2:0.13776439 3:40 
32768 1:0.50857715 2:0.13776439 3:79 
32768 1:0.50857715 2:0.13776439 3:103 
32768 1:0.50857715 2:0.13776439 3:106 
57.70639438330863 1:0.50857715 2:0.13776439 3:88 
32768 1:0.50857715 2:0.13776439 3:79 
32768 1:0.50857715 2:0.13776439 3:122 
32768 1:0.50857715 2:0.13776439 3:60 
3287.628171162134 1:0.50857715 2:0.13776439 3:51 
32768 1:0.50857715 2:0.13776439 3:76 
32768 1:0.50857715 2:0.13776439 3:107 
32768 1:0.50857715 2:0.13776439 3:115 
32768 1:0.50857715 2:0.13776439 3:119 
32768 1:0.50857715 2:0.13776439 3:123 
32768 1:0.50857715 2:0.13776439 3:123 
26172.74523081513 1:0.50857715 2:0.13776439 3:76 
32768 1:0.50857715 2:0.13776439 3:75 
32768 1:0.50857715 2:0.13776439 3:114 
32768 1:0.50857715 2:0.13776439 3:119 
32768 1:0.50857715 2:0.13776439 3:138 
32768 1:0.50857715 2:0.13776439 3:70 
32768 1:0.50857715 2:0.13776439 3:45 
32768 1:0.50857715 2:0.13776439 3:62 
32768 1:0.50857715 2:0.13776439 3:70 
213.7366806640817 1:0.50857715 2:0.13776439 3:80 
6222.734287768461 1:0.50857715 2:0.13776439 3:74 
32768 1:0.50857715 2:0.13776439 3:78 
60.30196970284977 1:0.50857715 2:0.13776439 3:126 
32768 1:0.50857715 2:0.13776439 3:107 
32768 1:0.50857715 2:0.13776439 3:107 
32768 1:0.50857715 2:0.13776439 3:119 
32768 1:0.50857715 2:0.13776439 3:115 
32768 1:0.50857715 2:0.13776439 3:61 
32768 1:0.50857715 2:0.13776439 3:47 
32768 1:0.50857715 2:0.13776439 3:48 
32768 1:0.50857715 2:0.13776439 3:68 
32768 1:0.50857715 2:0.13776439 3:58 
32768 1:0.50857715 2:0.13776439 3:56 
32768 1:0.50857715 2:0.13776439 3:80 
32768 1:0.50857715 2:0.13776439 3:115 
32768 1:0.50857715 2:0.13776439 3:122 
32768 1:0.50857715 2:0.13776439 3:126 
32768 1:0.50857715 2:0.13776439 3:44 
32768 1:0.50857715 2:0.13776439 3:51 
32768 1:0.50857715 2:0.13776439 3:41 
32768 1:0.50857715 2:0.13776439 3:47 
32768 1:0.50857715 2:0.13776439 3:65 
32768 1:0.50857715 2:0.13776439 3:63 
32768 1:0.50857715 2:0.13776439 3:85 
32768 1:0.50857715 2:0.13776439 3:115 
32768 1:0.50857715 2:0.13776439 3:114 
32768 1:0.50857715 2:0.13776439 3:113 
199.5783047834252 1:0.50857715 2:0.13776439 3:111 
32768 1:0.50857715 2:0.13776439 3:91 
32768 1:0.50857715 2:0.13776439 3:52 
32768 1:0.50857715 2:0.13776439 3:69 
32768 1:0.50857715 2:0.13776439 3:67 
30409.9960720261 1:0.50857715 2:0.13776439 3:66 
32768 1:0.50857715 2:0.13776439 3:46 
32768 1:0.50857715 2:0.13776439 3:39 
23690.043772698 1:0.50857715 2:0.13776439 3:53 
32768 1:0.50857715 2:0.13776439 3:62 
32664.56401153023 1:0.50857715 2:0.13776439 3:118 
1316.559950851459 1:0.50857715 2:0.13776439 3:124 
32768 1:0.50857715 2:0.13776439 3:116 
32768 1:0.50857715 2:0.13776439 3:119 
32768 1:0.50857715 2:0.13776439 3:111 
32768 1:0.50857715 2:0.13776439 3:118 
32768 1:0.50857715 2:0.13776439 3:99 
32768 1:0.50857715 2:0.13776439 3:61 
2552.587142197786 1:0.50857715 2:0.13776439 3:77 
32768 1:0.50857715 2:0.13776439 3:74 
31583.93353252179 1:0.50857715 2:0.13776439 3:79 
32768 1:0.50857715 2:0.13776439 3:70 
32768 1:0.50857715 2:0.13776439 3:44 
31247.074734814 1:0.50857715 2:0.13776439 3:69 
29406.86735487057 1:0.50857715 2:0.13776439 3:88 
32768 1:0.50857715 2:0.13776439 3:111 
726.0310396916208 1:0.50857715 2:0.13776439 3:127 
244.3956489553512 1:0.50857715 2:0.13776439 3:120 
32768 1:0.50857715 2:0.13776439 3:126 
32768 1:0.50857715 2:0.13776439 3:115 
32328.61215934344 1:0.50857715 2:0.13776439 3:77 
28920.93054420392 1:0.50857715 2:0.13776439 3:90 
29495.19279201651 1:0.50857715 2:0.13776439 3:82 
32768 1:0.50857715 2:0.13776439 3:91 
32768 1:0.50857715 2:0.13776439 3:96 
22484.36765713885 1:0.50857715 2:0.13776439 3:36 
32768 1:0.50857715 2:0.13776439 3:65 
32768 1:0.50857715 2:0.13776439 3:124 
73.64692102292886 1:0.50857715 2:0.13776439 3:112 
32768 1:0.50857715 2:0.13776439 3:113 
32768 1:0.50857715 2:0.13776439 3:112 
25034.01055561341 1:0.50857715 2:0.13776439 3:115 
1653.51984126596 1:0.50857715 2:0.13776439 3:81 
32768 1:0.50857715 2:0.13776439 3:102 
25002.59907135363 1:0.50857715 2:0.13776439 3:96 
32768 1:0.50857715 2:0.13776439 3:102 
32768 1:0.50857715 2:0.13776439 3:114 
32768 1:0.50857715 2:0.13776439 3:40 
32759.89952911371 1:0.50857715 2:0.13776439 3:93 
32768 1:0.50857715 2:0.13776439 3:112 
32768 1:0.50857715 2:0.13776439 3:102 
31195.83470728046 1:0.50857715 2:0.13776439 3:119 
32768 1:0.50857715 2:0.13776439 3:127 
32768 1:0.50857715 2:0.13776439 3:116 
32768 1:0.50857715 2:0.13776439 3:112 
32768 1:0.50857715 2:0.13776439 3:99 
32768 1:0.50857715 2:0.13776439 3:100 
32768 1:0.50857715 2:0.13776439 3:111 
32768 1:0.50857715 2:0.13776439 3:116 
100.7874584122219 1:0.50857715 2:0.13776439 3:121 
45.25793279901115 1:0.50857715 2:0.13776439 3:117 
32768 1:0.50857715 2:0.13776439 3:84 
32768 1:0.50857715 2:0.13776439 3:111 
32768 1:0.50857715 2:0.13776439 3:114 
153.8678723131672 1:0.50857715 2:0.13776439 3:128 
32768 1:0.50857715 2:0.13776439 3:128 
32768 1:0.50857715 2:0.13776439 3:126 
32768 1:0.50857715 2:0.13776439 3:103 
109.5242748711956 1:0.50857715 2:0.13776439 3:110 
32768 1:0.50857715 2:0.13776439 3:113 
32768 1:0.50857715 2:0.13776439 3:116 
32768 1:0.50857715 2:0.13776439 3:113 
32768 1:0.50857715 2:0.13776439 3:102 
32768 1:0.50857715 2:0.13776439 3:68 
32768 1:0.50857715 2:0.13776439 3:93 
32768 1:0.50857715 2:0.13776439 3:104 
32768 1:0.50857715 2:0.13776439 3:120 
32768 1:0.50857715 2:0.13776439 3:112 
160.9554240164093 1:0.50857715 2:0.13776439 3:108 
32768 1:0.50857715 2:0.13776439 3:118 
193.4720196146232 1:0.50857715 2:0.13776439 3:125 
32768 1:0.50857715 2:0.13776439 3:124 
32768 1:0.50857715 2:0.13776439 3:107 
32768 1:0.50857715 2:0.13776439 3:91 
32768 1:0.50857715 2:0.13776439 3:101 
32768 1:0.50857715 2:0.13776439 3:108 
30988.99442472596 1:0.50857715 2:0.13776439 3:124 
32768 1:0.50857715 2:0.13776439 3:127 
32768 1:0.50857715 2:0.13776439 3:110 
32768 1:0.50857715 2:0.13776439 3:120 
32768 1:0.50857715 2:0.13776439 3:125 
32768 1:0.50857715 2:0.13776439 3:127 
32768 1:0.50857715 2:0.13776439 3:122 
167.4006308685208 1:0.50857715 2:0.13776439 3:109 
32768 1:0.50857715 2:0.13776439 3:99 
32768 1:0.50857715 2:0.13776439 3:100 
32768 1:0.50857715 2:0.13776439 3:47 
32768 1:0.50857715 2:0.13776439 3:53 
32768 1:0.50857715 2:0.13776439 3:62 
31995.76234050559 1:0.50857715 2:0.13776439 3:81 
32768 1:0.50857715 2:0.13776439 3:108 
32768 1:0.50857715 2:0.13776439 3:125 
32768 1:0.50857715 2:0.13776439 3:125 
32768 1:0.50857715 2:0.13776439 3:128 
30960.38894809685 1:0.50857715 2:0.13776439 3:122 
30883.96021977235 1:0.50857715 2:0.13776439 3:118 
32768 1:0.50857715 2:0.13776439 3:110 
32768 1:0.50857715 2:0.13776439 3:111 
32768 1:0.50857715 2:0.13776439 3:112 
32762.48912969867 1:0.50857715 2:0.13776439 3:105 
28460.29448644486 1:0.50857715 2:0.13776439 3:45 
32768 1:0.50857715 2:0.13776439 3:78 
32768 1:0.50857715 2:0.13776439 3:108 
32768 1:0.50857715 2:0.13776439 3:112 
26771.57533382875 1:0.50857715 2:0.13776439 3:125 
32757.75736007114 1:0.50857715 2:0.13776439 3:129 
32768 1:0.50857715 2:0.13776439 3:128 
32768 1:0.50857715 2:0.13776439 3:110 
32768 1:0.50857715 2:0.13776439 3:100 
30217.60141608051 1:0.50857715 2:0.13776439 3:100 
30923.95175784684 1:0.50857715 2:0.13776439 3:98 
32768 1:0.50857715 2:0.13776439 3:107 
32768 1:0.50857715 2:0.13776439 3:102 
32157.84015733561 1:0.50857715 2:0.13776439 3:91 
32768 1:0.50857715 2:0.13776439 3:75 
30621.77675536828 1:0.50857715 2:0.13776439 3:105 
32755.94218211278 1:0.50857715 2:0.13776439 3:143 
855.7425899534347 1:0.50857715 2:0.13776439 3:155 
32740.74735784634 1:0.50857715 2:0.13776439 3:151 
4407.603877976183 1:0.50857715 2:0.13776439 3:136 
970.3139846201838 1:0.50857715 2:0.13776439 3:133 
32768 1:0.50857715 2:0.13776439 3:121 
24276.87671012314 1:0.50857715 2:0.13776439 3:108 
29032.99431590107 1:0.50857715 2:0.13776439 3:93 
32768 1:0.50857715 2:0.13776439 3:99 
32768 1:0.50857715 2:0.13776439 3:129 
32025.82625077302 1:0.50857715 2:0.13776439 3:133 
32114.38363252085 1:0.50857715 2:0.13776439 3:129 
28306.80931942122 1:0.50857715 2:0.13776439 3:120 
28058.12007740617 1:0.50857715 2:0.13776439 3:110 
32768 1:0.50857715 2:0.13776439 3:102 
32768 1:0.50857715 2:0.13776439 3:94 
32768 1:0.50857715 2:0.13776439 3:63 
32768 1:0.50857715 2:0.13776439 3:109 
32768 1:0.50857715 2:0.13776439 3:121 
29690.31694091699 1:0.50857715 2:0.13776439 3:126 
32768 1:0.50857715 2:0.13776439 3:121 
32768 1:0.50857715 2:0.13776439 3:104 
27739.89250321522 1:0.50857715 2:0.13776439 3:89 
24305.0537101887 1:0.50857715 2:0.13776439 3:87 
25221.48087747045 1:0.50857715 2:0.13776439 3:95 
32768 1:0.50857715 2:0.13776439 3:101 
30476.38683292105 1:0.50857715 2:0.13776439 3:80 
5183.577365773333 1:0.50857715 2:0.13776439 3:73 
32768 1:0.50857715 2:0.13776439 3:65 
32768 1:0.50857715 2:0.13776439 3:61 
32768 1:0.50857715 2:0.13776439 3:64 
32768 1:0.50857715 2:0.13776439 3:71 
23929.0393444547 1:0.50857715 2:0.13776439 3:113 
32488.12403987129 1:0.50857715 2:0.13776439 3:141 
32767.99816115887 1:0.50857715 2:0.13776439 3:155 
811.1685737442292 1:0.50857715 2:0.13776439 3:157 
32043.31533190038 1:0.50857715 2:0.13776439 3:128 
29014.45307129947 1:0.50857715 2:0.13776439 3:94 
30012.62146839788 1:0.50857715 2:0.13776439 3:102 
26.4808128777675 1:0.50857715 2:0.13776439 3:134 
477.1588557031924 1:0.50857715 2:0.13776439 3:135 
32768 1:0.50857715 2:0.13776439 3:136 
32768 1:0.50857715 2:0.13776439 3:136 
32591.05351274702 1:0.50857715 2:0.13776439 3:134 
31252.31167604046 1:0.50857715 2:0.13776439 3:127 
32768 1:0.50857715 2:0.13776439 3:114 
361.7228504423951 1:0.50857715 2:0.13776439 3:137 
32556.09969800993 1:0.50857715 2:0.13776439 3:150 
777.4340822328098 1:0.50857715 2:0.13776439 3:162 
635.4901726638238 1:0.50857715 2:0.13776439 3:148 
32607.62031050316 1:0.50857715 2:0.13776439 3:143 
31963.02027417261 1:0.50857715 2:0.13776439 3:84 
26149.58324480897 1:0.50857715 2:0.13776439 3:99 
28303.11035615568 1:0.50857715 2:0.13776439 3:109 
32768 1:0.50857715 2:0.13776439 3:111 
31627.32575684398 1:0.50857715 2:0.13776439 3:121 
526.3814961007075 1:0.50857715 2:0.13776439 3:132 
29608.42541401399 1:0.50857715 2:0.13776439 3:123 
26817.52255093016 1:0.50857715 2:0.13776439 3:103 
29449.27817830658 1:0.50857715 2:0.13776439 3:117 
29285.4776389473 1:0.50857715 2:0.13776439 3:114 
27087.42016746983 1:0.50857715 2:0.13776439 3:111 
29668.74077680074 1:0.50857715 2:0.13776439 3:112 
32768 1:0.50857715 2:0.13776439 3:56 
27300.02790012617 1:0.50857715 2:0.13776439 3:74 
32764.22707180229 1:0.50857715 2:0.13776439 3:71 
32768 1:0.50857715 2:0.13776439 3:56 
32768 1:0.50857715 2:0.13776439 3:57 
32767.80603247424 1:0.50857715 2:0.13776439 3:73 
32768 1:0.50857715 2:0.13776439 3:57 
32768 1:0.50857715 2:0.13776439 3:58 
32768 1:0.50857715 2:0.13776439 3:60 
32768 1:0.50857715 2:0.13776439 3:58 
32768 1:0.50857715 2:0.13776439 3:60 
17466.05443660905 1:0.50857715 2:0.13776439 3:59 
32768 1:0.50857715 2:0.13776439 3:60 
32768 1:0.50857715 2:0.13776439 3:65 
27758.87475662662 1:0.50857715 2:0.13776439 3:67 
27707.52707187671 1:0.50857715 2:0.13776439 3:68 
32768 1:0.50857715 2:0.13776439 3:51 
28574.12069063873 1:0.50857715 2:0.13776439 3:75 
31540.42921949399 1:0.50857715 2:0.13776439 3:72 
32768 1:0.50857715 2:0.13776439 3:48 
32768 1:0.50857715 2:0.13776439 3:63 
32734.244752441 1:0.50857715 2:0.13776439 3:59 
32768 1:0.50857715 2:0.13776439 3:42 
32768 1:0.50857715 2:0.13776439 3:50 
32768 1:0.50857715 2:0.13776439 3:61 
127.1873761670424 1:0.7347236 2:0.35859583 3:113 
32768 1:0.7347236 2:0.35859583 3:84 
32768 1:0.7347236 2:0.35859583 3:103 
32768 1:0.18460718 2:0.0079676384 3:49 
32768 1:0.18460718 2:0.0079676384 3:51 
32768 1:0.18460718 2:0.0079676384 3:49 
31872.59496429957 1:0.7347236 2:0.35859583 3:135 
4103.10885832972 1:0.18460718 2:0.0079676384 3:40 
32768 1:0.18460718 2:0.0079676384 3:47 
32768 1:0.18460718 2:0.0079676384 3:50 
32768 1:0.18460718 2:0.0079676384 3:54 
32768 1:0.18460718 2:0.0079676384 3:57 
32768 1:0.18460718 2:0.0079676384 3:58 
32768 1:0.18460718 2:0.0079676384 3:57 
32768 1:0.18460718 2:0.0079676384 3:53 
16066.66291924314 1:0.18460718 2:0.0079676384 3:46 
32768 1:0.18460718 2:0.0079676384 3:50 
32768 1:0.18460718 2:0.0079676384 3:53 
32768 1:0.18460718 2:0.0079676384 3:58 
32768 1:0.18460718 2:0.0079676384 3:58 
32768 1:0.18460718 2:0.0079676384 3:54 
32768 1:0.18460718 2:0.0079676384 3:52 
32768 1:0.18460718 2:0.0079676384 3:46 
32768 1:0.18460718 2:0.0079676384 3:51 
32768 1:0.18460718 2:0.0079676384 3:57 
32768 1:0.18460718 2:0.0079676384 3:58 
32768 1:0.18460718 2:0.0079676384 3:58 
32768 1:0.18460718 2:0.0079676384 3:57 
32768 1:0.18460718 2:0.0079676384 3:52 
32768 1:0.18460718 2:0.0079676384 3:50 
32768 1:0.18460718 2:0.0079676384 3:49 
32768 1:0.18460718 2:0.0079676384 3:49 
32768 1:0.18460718 2:0.0079676384 3:51 
32768 1:0.18460718 2:0.0079676384 3:59 
32768 1:0.18460718 2:0.0079676384 3:59 
32768 1:0.18460718 2:0.0079676384 3:59 
32768 1:0.18460718 2:0.0079676384 3:58 
32768 1:0.18460718 2:0.0079676384 3:52 
32768 1:0.18460718 2:0.0079676384 3:50 
32768 1:0.18460718 2:0.0079676384 3:48 
32768 1:0.18460718 2:0.0079676384 3:49 
32768 1:0.18460718 2:0.0079676384 3:51 
32768 1:0.18460718 2:0.0079676384 3:51 
32768 1:0.18460718 2:0.0079676384 3:60 
32768 1:0.18460718 2:0.0079676384 3:59 
32768 1:0.18460718 2:0.0079676384 3:57 
17100.06330892995 1:0.18460718 2:0.0079676384 3:55 
32768 1:0.18460718 2:0.0079676384 3:52 
32768 1:0.18460718 2:0.0079676384 3:50 
32768 1:0.18460718 2:0.0079676384 3:48 
32768 1:0.18460718 2:0.0079676384 3:46 
32768 1:0.18460718 2:0.0079676384 3:47 
32768 1:0.18460718 2:0.0079676384 3:48 
32768 1:0.18460718 2:0.0079676384 3:47 
32768 1:0.18460718 2:0.0079676384 3:48 
32768 1:0.18460718 2:0.0079676384 3:51 
32768 1:0.18460718 2:0.0079676384 3:58 
32768 1:0.18460718 2:0.0079676384 3:54 
32768 1:0.18460718 2:0.0079676384 3:51 
32768 1:0.18460718 2:0.0079676384 3:48 
32768 1:0.18460718 2:0.0079676384 3:47 
32768 1:0.18460718 2:0.0079676384 3:46 
32768 1:0.18460718 2:0.0079676384 3:46 
32768 1:0.18460718 2:0.0079676384 3:49 
32768 1:0.18460718 2:0.0079676384 3:48 
32768 1:0.18460718 2:0.0079676384 3:49 
32768 1:0.18460718 2:0.0079676384 3:54 
32768 1:0.18460718 2:0.0079676384 3:52 
32768 1:0.18460718 2:0.0079676384 3:49 
32768 1:0.18460718 2:0.0079676384 3:46 
32768 1:0.18460718 2:0.0079676384 3:46 
32768 1:0.18460718 2:0.0079676384 3:48 
32768 1:0.18460718 2:0.0079676384 3:47 
24409.10320091711 1:0.18460718 2:0.0079676384 3:44 
32768 1:0.18460718 2:0.0079676384 3:52 
32768 1:0.18460718 2:0.0079676384 3:46 
32768 1:0.18460718 2:0.0079676384 3:51 
32768 1:0.18460718 2:0.0079676384 3:49 
32768 1:0.18460718 2:0.0079676384 3:46 
32768 1:0.18460718 2:0.0079676384 3:44 
32768 1:0.18460718 2:0.0079676384 3:44 
4487.405763040741 1:0.18460718 2:0.0079676384 3:40 
32768 1:0.18460718 2:0.0079676384 3:47 
32768 1:0.18460718 2:0.0079676384 3:50 
32768 1:0.18460718 2:0.0079676384 3:50 
32768 1:0.18460718 2:0.0079676384 3:52 
32768 1:0.18460718 2:0.0079676384 3:55 
32768 1:0.18460718 2:0.0079676384 3:47 
32768 1:0.18460718 2:0.0079676384 3:44 
32768 1:0.18460718 2:0.0079676384 3:46 
32768 1:0.18460718 2:0.0079676384 3:48 
32768 1:0.18460718 2:0.0079676384 3:46 
32768 1:0.18460718 2:0.0079676384 3:49 
32768 1:0.18460718 2:0.0079676384 3:52 
32768 1:0.18460718 2:0.0079676384 3:55 
32768 1:0.18460718 2:0.0079676384 3:50 
32768 1:0.18460718 2:0.0079676384 3:47 
32768 1:0.18460718 2:0.0079676384 3:44 
32768 1:0.18460718 2:0.0079676384 3:46 
32768 1:0.18460718 2:0.0079676384 3:50 
32768 1:0.18460718 2:0.0079676384 3:53 
32768 1:0.18460718 2:0.0079676384 3:51 
18040.93223347176 1:0.18460718 2:0.0079676384 3:45 
32768 1:0.18460718 2:0.0079676384 3:44 
32768 1:0.18460718 2:0.0079676384 3:44 
32768 1:0.18460718 2:0.0079676384 3:45 
32768 1:0.18460718 2:0.0079676384 3:47 
32768 1:0.18460718 2:0.0079676384 3:44 
32768 1:0.18460718 2:0.0079676384 3:44 
32768 1:0.18460718 2:0.0079676384 3:50 
32768 1:0.18460718 2:0.0079676384 3:53 
4258.144068834176 1:0.18460718 2:0.0079676384 3:56 
32768 1:0.18460718 2:0.0079676384 3:51 
32768 1:0.18460718 2:0.0079676384 3:45 
32768 1:0.18460718 2:0.0079676384 3:46 
32768 1:0.18460718 2:0.0079676384 3:46 
32768 1:0.18460718 2:0.0079676384 3:44 
32768 1:0.18460718 2:0.0079676384 3:44 
32768 1:0.18460718 2:0.0079676384 3:45 
32768 1:0.18460718 2:0.0079676384 3:44 
32768 1:0.18460718 2:0.0079676384 3:46 
32768 1:0.18460718 2:0.0079676384 3:49 
32768 1:0.18460718 2:0.0079676384 3:51 
32768 1:0.18460718 2:0.0079676384 3:53 
32768 1:0.18460718 2:0.0079676384 3:48 
32768 1:0.18460718 2:0.0079676384 3:46 
32768 1:0.18460718 2:0.0079676384 3:46 
32768 1:0.18460718 2:0.0079676384 3:46 
32768 1:0.18460718 2:0.0079676384 3:46 
13171.13640490702 1:0.18460718 2:0.0079676384 3:45 
32768 1:0.18460718 2:0.0079676384 3:46 
32768 1:0.18460718 2:0.0079676384 3:46 
32768 1:0.18460718 2:0.0079676384 3:52 
32768 1:0.18460718 2:0.0079676384 3:49 
32768 1:0.18460718 2:0.0079676384 3:48 
32768 1:0.18460718 2:0.0079676384 3:47 
32768 1:0.18460718 2:0.0079676384 3:49 
32768 1:0.18460718 2:0.0079676384 3:50 
32768 1:0.18460718 2:0.0079676384 3:47 
32768 1:0.18460718 2:0.0079676384 3:46 
32768 1:0.18460718 2:0.0079676384 3:48 
32768 1:0.18460718 2:0.0079676384 3:49 
32768 1:0.18460718 2:0.0079676384 3:46 
30519.59272275242 1:0.18460718 2:0.0079676384 3:44 
32768 1:0.18460718 2:0.0079676384 3:37 
866.6659824276103 1:0.18460718 2:0.0079676384 3:45 
32768 1:0.18460718 2:0.0079676384 3:45 
32743.28968427698 1:0.7347236 2:0.35859583 3:136 
32768 1:0.7347236 2:0.35859583 3:84 
10.61726515738784 1:0.7347236 2:0.35859583 3:165 
31752.91834761548 1:0.7347236 2:0.35859583 3:136 
19.95561678133645 1:0.7347236 2:0.35859583 3:150 
32415.84078333604 1:0.7347236 2:0.35859583 3:133 
15.04418426068335 1:0.7347236 2:0.35859583 3:141 
32768 1:0.7347236 2:0.35859583 3:79 
32515.01114876764 1:0.7347236 2:0.35859583 3:138 
32768 1:0.7347236 2:0.35859583 3:92 
32758.85638929325 1:0.7347236 2:0.35859583 3:132 
32189.46394263248 1:0.7347236 2:0.35859583 3:132 
141.3904863463682 1:0.7347236 2:0.35859583 3:131 
76.67912373252102 1:0.7347236 2:0.35859583 3:69 
62.66323141461828 1:0.7347236 2:0.35859583 3:129 
32768 1:0.7347236 2:0.35859583 3:113 
32768 1:0.7347236 2:0.35859583 3:129 
31310.36968164179 1:0.25189935 2:0.036693238 3:68 
32768 1:0.25189935 2:0.036693238 3:74 
32768 1:0.19895575 2:0.012088449 3:61 
32768 1:0.19895575 2:0.012088449 3:64 
32768 1:0.19895575 2:0.012088449 3:61 
32768 1:0.7347236 2:0.35859583 3:84 
148.8812281082584 1:0.7347236 2:0.35859583 3:123 
32768 1:0.19895575 2:0.012088449 3:60 
32768 1:0.19895575 2:0.012088449 3:61 
32768 1:0.19895575 2:0.012088449 3:39 
32768 1:0.7347236 2:0.35859583 3:113 
32586.45714110528 1:0.7347236 2:0.35859583 3:123 
32768 1:0.25189935 2:0.036693238 3:75 
2164.099647154495 1:0.25189935 2:0.036693238 3:87 
32768 1:0.19895575 2:0.012088449 3:62 
32768 1:0.19895575 2:0.012088449 3:63 
32768 1:0.19895575 2:0.012088449 3:63 
32768 1:0.19895575 2:0.012088449 3:60 
32768 1:0.19895575 2:0.012088449 3:61 
32768 1:0.22357508 2:0.020240065 3:92 
146.9992393563587 1:0.7347236 2:0.35859583 3:120 
241.5699313597241 1:0.7347236 2:0.35859583 3:117 
73.37455917701971 1:0.7347236 2:0.35859583 3:112 
32768 1:0.25189935 2:0.036693238 3:70 
32768 1:0.25189935 2:0.036693238 3:75 
32768 1:0.19895575 2:0.012088449 3:67 
32768 1:0.19895575 2:0.012088449 3:63 
32768 1:0.19895575 2:0.012088449 3:63 
32768 1:0.19895575 2:0.012088449 3:61 
9600.629299718741 1:0.19895575 2:0.012088449 3:47 
32768 1:0.19895575 2:0.012088449 3:48 
32768 1:0.19895575 2:0.012088449 3:51 
32768 1:0.22357508 2:0.020240065 3:97 
32768 1:0.22357508 2:0.020240065 3:97 
32768 1:0.22357508 2:0.020240065 3:88 
32768 1:0.7347236 2:0.35859583 3:65 
32768 1:0.7347236 2:0.35859583 3:120 
32758.57062635205 1:0.7347236 2:0.35859583 3:130 
32554.52531196649 1:0.7347236 2:0.35859583 3:130 
32768 1:0.25189935 2:0.036693238 3:87 
32768 1:0.19895575 2:0.012088449 3:63 
32768 1:0.19895575 2:0.012088449 3:64 
32768 1:0.19895575 2:0.012088449 3:64 
32768 1:0.19895575 2:0.012088449 3:60 
32768 1:0.19895575 2:0.012088449 3:62 
32768 1:0.19895575 2:0.012088449 3:47 
17087.49296456319 1:0.19895575 2:0.012088449 3:50 
32768 1:0.19895575 2:0.012088449 3:62 
32768 1:0.19895575 2:0.012088449 3:61 
32768 1:0.22357508 2:0.020240065 3:98 
32768 1:0.22357508 2:0.020240065 3:95 
32768 1:0.22357508 2:0.020240065 3:89 
32768 1:0.22357508 2:0.020240065 3:90 
32768 1:0.7347236 2:0.35859583 3:112 
32768 1:0.7347236 2:0.35859583 3:120 
32768 1:0.25189935 2:0.036693238 3:68 
32768 1:0.25189935 2:0.036693238 3:75 
32768 1:0.19895575 2:0.012088449 3:62 
32768 1:0.19895575 2:0.012088449 3:61 
28458.36466777135 1:0.19895575 2:0.012088449 3:63 
32768 1:0.22357508 2:0.020240065 3:98 
32768 1:0.22357508 2:0.020240065 3:93 
32768 1:0.22357508 2:0.020240065 3:92 
32768 1:0.22357508 2:0.020240065 3:91 
100.1559801798321 1:0.7347236 2:0.35859583 3:68 
32542.73958902909 1:0.7347236 2:0.35859583 3:86 
124.4697191434928 1:0.7347236 2:0.35859583 3:114 
122.8092177412494 1:0.7347236 2:0.35859583 3:125 
32768 1:0.7347236 2:0.35859583 3:125 
32768 1:0.7347236 2:0.35859583 3:120 
97.52343355683946 1:0.7347236 2:0.35859583 3:111 
32768 1:0.25189935 2:0.036693238 3:74 
15597.73046403594 1:0.25189935 2:0.036693238 3:79 
32768 1:0.25189935 2:0.036693238 3:75 
32768 1:0.25189935 2:0.036693238 3:74 
32768 1:0.25189935 2:0.036693238 3:74 
32768 1:0.19895575 2:0.012088449 3:51 
3224.851567032235 1:0.19895575 2:0.012088449 3:47 
32768 1:0.19895575 2:0.012088449 3:48 
31856.64417501917 1:0.19895575 2:0.012088449 3:51 
32768 1:0.19895575 2:0.012088449 3:64 
32768 1:0.19895575 2:0.012088449 3:61 
32768 1:0.22357508 2:0.020240065 3:89 
32768 1:0.22357508 2:0.020240065 3:85 
32768 1:0.22357508 2:0.020240065 3:96 
32768 1:0.22357508 2:0.020240065 3:90 
116.7789496250881 1:0.7347236 2:0.35859583 3:110 
131.9670450787372 1:0.7347236 2:0.35859583 3:115 
39.75035525804074 1:0.7347236 2:0.35859583 3:122 
32350.96597410825 1:0.7347236 2:0.35859583 3:125 
32768 1:0.7347236 2:0.35859583 3:129 
32073.95624764463 1:0.7347236 2:0.35859583 3:131 
32326.48888279531 1:0.7347236 2:0.35859583 3:127 
41.10656178917248 1:0.7347236 2:0.35859583 3:124 
36.79460254130248 1:0.7347236 2:0.35859583 3:121 
25.5024286024858 1:0.7347236 2:0.35859583 3:119 
32768 1:0.25189935 2:0.036693238 3:70 
32768 1:0.25189935 2:0.036693238 3:71 
10057.83972952522 1:0.25189935 2:0.036693238 3:72 
32768 1:0.25189935 2:0.036693238 3:71 
32768 1:0.25189935 2:0.036693238 3:68 
32768 1:0.19895575 2:0.012088449 3:62 
32768 1:0.19895575 2:0.012088449 3:60 
32768 1:0.22357508 2:0.020240065 3:77 
32768 1:0.22357508 2:0.020240065 3:77 
32768 1:0.22357508 2:0.020240065 3:90 
32768 1:0.22357508 2:0.020240065 3:73 
289.5770565305729 1:0.7347236 2:0.35859583 3:104 
146.4774117008326 1:0.7347236 2:0.35859583 3:116 
32768 1:0.7347236 2:0.35859583 3:120 
32152.11914903877 1:0.7347236 2:0.35859583 3:122 
32768 1:0.7347236 2:0.35859583 3:119 
32768 1:0.7347236 2:0.35859583 3:124 
26.40989300190134 1:0.7347236 2:0.35859583 3:128 
31656.12001783638 1:0.7347236 2:0.35859583 3:128 
32656.69730970264 1:0.7347236 2:0.35859583 3:129 
32768 1:0.7347236 2:0.35859583 3:117 
32768 1:0.7347236 2:0.35859583 3:116 
32768 1:0.7347236 2:0.35859583 3:116 
32768 1:0.7347236 2:0.35859583 3:116 
32223.52065249255 1:0.7347236 2:0.35859583 3:113 
32768 1:0.7347236 2:0.35859583 3:105 
32768 1:0.25189935 2:0.036693238 3:66 
32768 1:0.25189935 2:0.036693238 3:66 
19624.61770811626 1:0.25189935 2:0.036693238 3:67 
23264.54321769215 1:0.19895575 2:0.012088449 3:50 
32768 1:0.22357508 2:0.020240065 3:74 
32768 1:0.22357508 2:0.020240065 3:80 
32768 1:0.22357508 2:0.020240065 3:74 
32768 1:0.22357508 2:0.020240065 3:70 
32658.80099631049 1:0.7347236 2:0.35859583 3:114 
32705.60259466856 1:0.7347236 2:0.35859583 3:119 
32768 1:0.7347236 2:0.35859583 3:117 
31396.31359481957 1:0.7347236 2:0.35859583 3:120 
32365.02469700435 1:0.7347236 2:0.35859583 3:124 
304.6648917510913 1:0.7347236 2:0.35859583 3:126 
230.9404216394087 1:0.7347236 2:0.35859583 3:118 
32543.85078693758 1:0.7347236 2:0.35859583 3:118 
32768 1:0.7347236 2:0.35859583 3:117 
32768 1:0.7347236 2:0.35859583 3:109 
32768 1:0.7347236 2:0.35859583 3:108 
32375.64711676107 1:0.7347236 2:0.35859583 3:108 
32768 1:0.7347236 2:0.35859583 3:105 
1435.989122877755 1:0.7347236 2:0.35859583 3:64 
32768 1:0.25189935 2:0.036693238 3:67 
19792.76862330757 1:0.25189935 2:0.036693238 3:69 
32768 1:0.25189935 2:0.036693238 3:67 
32768 1:0.19895575 2:0.012088449 3:48 
2084.011003734153 1:0.19895575 2:0.012088449 3:53 
7864.817276214656 1:0.19895575 2:0.012088449 3:58 
3360.128822592218 1:0.19895575 2:0.012088449 3:58 
32768 1:0.7347236 2:0.35859583 3:64 
31848.85111077004 1:0.7347236 2:0.35859583 3:112 
32768 1:0.7347236 2:0.35859583 3:115 
32554.94384995312 1:0.7347236 2:0.35859583 3:121 
32768 1:0.7347236 2:0.35859583 3:115 
32768 1:0.7347236 2:0.35859583 3:115 
32627.88312036121 1:0.7347236 2:0.35859583 3:116 
32768 1:0.7347236 2:0.35859583 3:110 
32340.6318726682 1:0.7347236 2:0.35859583 3:110 
32768 1:0.7347236 2:0.35859583 3:104 
143.5506896108788 1:0.7347236 2:0.35859583 3:102 
1768.331852669774 1:0.7347236 2:0.35859583 3:61 
28737.22579661187 1:0.25189935 2:0.036693238 3:63 
32768 1:0.25189935 2:0.036693238 3:63 
32768 1:0.19895575 2:0.012088449 3:53 
3548.393191421941 1:0.19895575 2:0.012088449 3:54 
32768 1:0.19895575 2:0.012088449 3:54 
32768 1:0.19895575 2:0.012088449 3:60 
32768 1:0.19895575 2:0.012088449 3:61 
32033.56707033985 1:0.7347236 2:0.35859583 3:111 
32768 1:0.7347236 2:0.35859583 3:115 
32457.9088770047 1:0.7347236 2:0.35859583 3:115 
130.5238613329693 1:0.7347236 2:0.35859583 3:107 
32768 1:0.7347236 2:0.35859583 3:107 
32768 1:0.7347236 2:0.35859583 3:104 
32768 1:0.7347236 2:0.35859583 3:105 
32768 1:0.7347236 2:0.35859583 3:105 
32768 1:0.7347236 2:0.35859583 3:61 
32768 1:0.19895575 2:0.012088449 3:54 
32768 1:0.19895575 2:0.012088449 3:53 
32768 1:0.19895575 2:0.012088449 3:53 
27566.71810731453 1:0.19895575 2:0.012088449 3:57 
32768 1:0.19895575 2:0.012088449 3:62 
32768 1:0.19895575 2:0.012088449 3:64 
32768 1:0.7347236 2:0.35859583 3:107 
32187.63882155801 1:0.7347236 2:0.35859583 3:106 
32348.0011522144 1:0.7347236 2:0.35859583 3:107 
32740.77351230794 1:0.7347236 2:0.35859583 3:104 
90.27498485955947 1:0.7347236 2:0.35859583 3:101 
32768 1:0.7347236 2:0.35859583 3:103 
32768 1:0.7347236 2:0.35859583 3:103 
32768 1:0.7347236 2:0.35859583 3:92 
32768 1:0.19895575 2:0.012088449 3:53 
32768 1:0.19895575 2:0.012088449 3:53 
32768 1:0.19895575 2:0.012088449 3:53 
32768 1:0.19895575 2:0.012088449 3:54 
32768 1:0.19895575 2:0.012088449 3:67 
22401.60456092695 1:0.19895575 2:0.012088449 3:63 
32768 1:0.7347236 2:0.35859583 3:101 
32768 1:0.7347236 2:0.35859583 3:101 
32768 1:0.7347236 2:0.35859583 3:102 
245.3529840966348 1:0.7347236 2:0.35859583 3:100 
32768 1:0.7347236 2:0.35859583 3:92 
32768 1:0.7347236 2:0.35859583 3:72 
0.003216024558142088 1:0.19895575 2:0.012088449 3:51 
32768 1:0.19895575 2:0.012088449 3:61 
32768 1:0.19895575 2:0.012088449 3:62 
5641.325473235963 1:0.19895575 2:0.012088449 3:58 
32768 1:0.7347236 2:0.35859583 3:86 
123.3160434310318 1:0.7347236 2:0.35859583 3:94 
32768 1:0.7347236 2:0.35859583 3:100 
32768 1:0.7347236 2:0.35859583 3:101 
32768 1:0.7347236 2:0.35859583 3:94 
32768 1:0.7347236 2:0.35859583 3:92 
32768 1:0.7347236 2:0.35859583 3:76 
32768 1:0.7347236 2:0.35859583 3:65 
32768 1:0.19895575 2:0.012088449 3:57 
32768 1:0.19895575 2:0.012088449 3:60 
32768 1:0.19895575 2:0.012088449 3:62 
32768 1:0.19895575 2:0.012088449 3:60 
32768 1:0.19895575 2:0.012088449 3:53 
32768 1:0.7347236 2:0.35859583 3:100 
32768 1:0.7347236 2:0.35859583 3:100 
32768 1:0.7347236 2:0.35859583 3:89 
32768 1:0.7347236 2:0.35859583 3:79 
32768 1:0.7347236 2:0.35859583 3:64 
5905.651474732578 1:0.19895575 2:0.012088449 3:54 
0.003867302417493878 1:0.19895575 2:0.012088449 3:54 
32768 1:0.19895575 2:0.012088449 3:58 
32768 1:0.19895575 2:0.012088449 3:64 
32768 1:0.19895575 2:0.012088449 3:60 
11947.90990121332 1:0.19895575 2:0.012088449 3:48 
32768 1:0.7347236 2:0.35859583 3:91 
32768 1:0.7347236 2:0.35859583 3:76 
32768 1:0.7347236 2:0.35859583 3:69 
1890.782488302534 1:0.7347236 2:0.35859583 3:62 
32768 1:0.25189935 2:0.036693238 3:63 
32768 1:0.25189935 2:0.036693238 3:63 
32768 1:0.25189935 2:0.036693238 3:68 
32768 1:0.25189935 2:0.036693238 3:66 
21047.17836321021 1:0.19895575 2:0.012088449 3:58 
32768 1:0.19895575 2:0.012088449 3:60 
27010.49367945824 1:0.19895575 2:0.012088449 3:57 
32768 1:0.7347236 2:0.35859583 3:92 
32759.68533860936 1:0.7347236 2:0.35859583 3:99 
32768 1:0.7347236 2:0.35859583 3:99 
144.8818983353715 1:0.7347236 2:0.35859583 3:93 
32768 1:0.7347236 2:0.35859583 3:69 
32768 1:0.7347236 2:0.35859583 3:64 
32768 1:0.7347236 2:0.35859583 3:62 
32768 1:0.25189935 2:0.036693238 3:66 
32768 1:0.25189935 2:0.036693238 3:67 
32768 1:0.25189935 2:0.036693238 3:71 
32768 1:0.25189935 2:0.036693238 3:70 
32768 1:0.25189935 2:0.036693238 3:63 
4212.201667079481 1:0.19895575 2:0.012088449 3:53 
32768 1:0.7347236 2:0.35859583 3:91 
32768 1:0.7347236 2:0.35859583 3:93 
32768 1:0.7347236 2:0.35859583 3:94 
32768 1:0.7347236 2:0.35859583 3:99 
32698.60958767694 1:0.7347236 2:0.35859583 3:98 
32768 1:0.7347236 2:0.35859583 3:98 
32768 1:0.7347236 2:0.35859583 3:91 
32753.778272634 1:0.7347236 2:0.35859583 3:87 
32768 1:0.7347236 2:0.35859583 3:86 
32768 1:0.7347236 2:0.35859583 3:79 
32768 1:0.7347236 2:0.35859583 3:69 
32768 1:0.7347236 2:0.35859583 3:65 
32768 1:0.25189935 2:0.036693238 3:68 
32768 1:0.25189935 2:0.036693238 3:69 
32768 1:0.25189935 2:0.036693238 3:68 
32768 1:0.25189935 2:0.036693238 3:63 
32768 1:0.7347236 2:0.35859583 3:91 
32768 1:0.7347236 2:0.35859583 3:94 
66.09048126942494 1:0.7347236 2:0.35859583 3:95 
32130.50700197404 1:0.7347236 2:0.35859583 3:101 
32768 1:0.7347236 2:0.35859583 3:99 
14.56877156072194 1:0.7347236 2:0.35859583 3:97 
32768 1:0.7347236 2:0.35859583 3:97 
32768 1:0.7347236 2:0.35859583 3:97 
32768 1:0.7347236 2:0.35859583 3:95 
32768 1:0.7347236 2:0.35859583 3:91 
32768 1:0.7347236 2:0.35859583 3:87 
32768 1:0.7347236 2:0.35859583 3:61 
17333.14241791938 1:0.25189935 2:0.036693238 3:65 
26337.19883682215 1:0.25189935 2:0.036693238 3:64 
32768 1:0.7347236 2:0.35859583 3:86 
32675.40262311416 1:0.7347236 2:0.35859583 3:92 
32768 1:0.7347236 2:0.35859583 3:98 
32308.01616526576 1:0.7347236 2:0.35859583 3:103 
32768 1:0.7347236 2:0.35859583 3:102 
32768 1:0.7347236 2:0.35859583 3:96 
32768 1:0.7347236 2:0.35859583 3:102 
32768 1:0.7347236 2:0.35859583 3:100 
32768 1:0.7347236 2:0.35859583 3:93 
26.55142569560594 1:0.7347236 2:0.35859583 3:90 
32768 1:0.7347236 2:0.35859583 3:87 
32744.14227730917 1:0.7347236 2:0.35859583 3:74 
31365.75709908492 1:0.25189935 2:0.036693238 3:64 
22542.72183389981 1:0.25189935 2:0.036693238 3:62 
14874.18204159684 1:0.25189935 2:0.036693238 3:62 
22268.82939891447 1:0.25189935 2:0.036693238 3:59 
189.8099302667141 1:0.7347236 2:0.35859583 3:88 
32768 1:0.7347236 2:0.35859583 3:94 
32437.39096670581 1:0.7347236 2:0.35859583 3:99 
32764.91476242232 1:0.7347236 2:0.35859583 3:100 
32539.21741359066 1:0.7347236 2:0.35859583 3:95 
32768 1:0.7347236 2:0.35859583 3:94 
32768 1:0.7347236 2:0.35859583 3:97 
32768 1:0.7347236 2:0.35859583 3:96 
32768 1:0.7347236 2:0.35859583 3:90 
32768 1:0.7347236 2:0.35859583 3:90 
32768 1:0.7347236 2:0.35859583 3:88 
32761.88831338245 1:0.7347236 2:0.35859583 3:81 
32768 1:0.7347236 2:0.35859583 3:79 
32768 1:0.7347236 2:0.35859583 3:75 
24599.50581687065 1:0.25189935 2:0.036693238 3:63 
28605.53096062801 1:0.25189935 2:0.036693238 3:60 
32768 1:0.25189935 2:0.036693238 3:60 
32768 1:0.25189935 2:0.036693238 3:59 
32768 1:0.7347236 2:0.35859583 3:88 
32768 1:0.7347236 2:0.35859583 3:93 
32768 1:0.7347236 2:0.35859583 3:98 
32768 1:0.7347236 2:0.35859583 3:98 
32768 1:0.7347236 2:0.35859583 3:97 
32340.18416023205 1:0.7347236 2:0.35859583 3:97 
32768 1:0.7347236 2:0.35859583 3:96 
32768 1:0.7347236 2:0.35859583 3:93 
32768 1:0.7347236 2:0.35859583 3:91 
32768 1:0.7347236 2:0.35859583 3:88 
32768 1:0.7347236 2:0.35859583 3:81 
32768 1:0.7347236 2:0.35859583 3:74 
127.6974585317959 1:0.7347236 2:0.35859583 3:70 
9079.725105610409 1:0.25189935 2:0.036693238 3:59 
843.2813902782958 1:0.25189935 2:0.036693238 3:58 
32768 1:0.25189935 2:0.036693238 3:58 
32768 1:0.7347236 2:0.35859583 3:84 
32768 1:0.7347236 2:0.35859583 3:94 
32316.74402299966 1:0.7347236 2:0.35859583 3:98 
32178.76549258949 1:0.7347236 2:0.35859583 3:96 
32696.96534056894 1:0.7347236 2:0.35859583 3:94 
32678.69112183441 1:0.7347236 2:0.35859583 3:93 
32708.50616685283 1:0.7347236 2:0.35859583 3:90 
32761.5993954699 1:0.7347236 2:0.35859583 3:88 
32753.38760724764 1:0.7347236 2:0.35859583 3:85 
32768 1:0.7347236 2:0.35859583 3:81 
32722.05785815347 1:0.7347236 2:0.35859583 3:77 
32768 1:0.7347236 2:0.35859583 3:72 
32768 1:0.7347236 2:0.35859583 3:68 
31860.58247247873 1:0.7347236 2:0.35859583 3:91 
32768 1:0.7347236 2:0.35859583 3:89 
32768 1:0.7347236 2:0.35859583 3:86 
32768 1:0.7347236 2:0.35859583 3:87 
32768 1:0.7347236 2:0.35859583 3:89 
32768 1:0.7347236 2:0.35859583 3:87 
32768 1:0.7347236 2:0.35859583 3:85 
32768 1:0.7347236 2:0.35859583 3:76 
32768 1:0.7347236 2:0.35859583 3:85 
32768 1:0.7347236 2:0.35859583 3:85 
32768 1:0.7347236 2:0.35859583 3:86 
32197.74256377012 1:0.7347236 2:0.35859583 3:86 
31815.35373866055 1:0.7347236 2:0.35859583 3:85 
32768 1:0.7347236 2:0.35859583 3:84 
32768 1:0.7347236 2:0.35859583 3:76 
32768 1:0.7347236 2:0.35859583 3:70 
100.85897031655 1:0.7347236 2:0.35859583 3:66 
32751.11763124088 1:0.7347236 2:0.35859583 3:78 
32376.42001696445 1:0.7347236 2:0.35859583 3:87 
32768 1:0.7347236 2:0.35859583 3:84 
32719.23454451541 1:0.7347236 2:0.35859583 3:83 
65.71633450412138 1:0.7347236 2:0.35859583 3:82 
32724.05173250734 1:0.7347236 2:0.35859583 3:80 
32768 1:0.7347236 2:0.35859583 3:77 
32750.65396084582 1:0.7347236 2:0.35859583 3:71 
32768 1:0.7347236 2:0.35859583 3:66 
32768 1:0.7347236 2:0.35859583 3:74 
32768 1:0.7347236 2:0.35859583 3:76 
32768 1:0.7347236 2:0.35859583 3:83 
32440.98980650432 1:0.7347236 2:0.35859583 3:83 
32768 1:0.7347236 2:0.35859583 3:82 
32768 1:0.7347236 2:0.35859583 3:82 
32768 1:0.7347236 2:0.35859583 3:82 
31494.66658275473 1:0.7347236 2:0.35859583 3:81 
32768 1:0.7347236 2:0.35859583 3:77 
32768 1:0.7347236 2:0.35859583 3:71 
31476.19954938267 1:0.7347236 2:0.35859583 3:77 
32768 1:0.7347236 2:0.35859583 3:74 
32768 1:0.7347236 2:0.35859583 3:78 
32768 1:0.7347236 2:0.35859583 3:80 
32768 1:0.7347236 2:0.35859583 3:79 
32768 1:0.7347236 2:0.35859583 3:75 
32647.82070686152 1:0.7347236 2:0.35859583 3:73 
32768 1:0.7347236 2:0.35859583 3:73 
32768 1:0.7347236 2:0.35859583 3:75 
32768 1:0.7347236 2:0.35859583 3:64 
32768 1:0.16411402 2:0.00062703307 3:57 
32768 1:0.16411402 2:0.00062703307 3:63 
32768 1:0.16411402 2:0.00062703307 3:62 
32768 1:0.16411402 2:0.00062703307 3:70 
32768 1:0.16411402 2:0.00062703307 3:37 
32768 1:0.7347236 2:0.35859583 3:68 
32768 1:0.7347236 2:0.35859583 3:68 
32768 1:0.7347236 2:0.35859583 3:73 
32768 1:0.7347236 2:0.35859583 3:78 
32256.23219381604 1:0.7347236 2:0.35859583 3:80 
32768 1:0.7347236 2:0.35859583 3:78 
32768 1:0.7347236 2:0.35859583 3:72 
32768 1:0.7347236 2:0.35859583 3:67 
32768 1:0.7347236 2:0.35859583 3:65 
32768 1:0.16411402 2:0.00062703307 3:47 
32768 1:0.16411402 2:0.00062703307 3:55 
32768 1:0.16411402 2:0.00062703307 3:62 
32768 1:0.16411402 2:0.00062703307 3:67 
32768 1:0.16411402 2:0.00062703307 3:106 
32768 1:0.16411402 2:0.00062703307 3:73 
32768 1:0.16411402 2:0.00062703307 3:41 
32768 1:0.7347236 2:0.35859583 3:73 
32768 1:0.7347236 2:0.35859583 3:76 
32768 1:0.7347236 2:0.35859583 3:78 
32242.02916357684 1:0.7347236 2:0.35859583 3:78 
28736.40811758457 1:0.7347236 2:0.35859583 3:74 
32768 1:0.7347236 2:0.35859583 3:68 
32768 1:0.7347236 2:0.35859583 3:70 
32768 1:0.16411402 2:0.00062703307 3:55 
32768 1:0.16411402 2:0.00062703307 3:63 
32768 1:0.16411402 2:0.00062703307 3:71 
20788.74407432537 1:0.16411402 2:0.00062703307 3:133 
32768 1:0.16411402 2:0.00062703307 3:68 
32768 1:0.7347236 2:0.35859583 3:68 
32768 1:0.7347236 2:0.35859583 3:69 
32768 1:0.7347236 2:0.35859583 3:72 
30727.80583923154 1:0.7347236 2:0.35859583 3:73 
32768 1:0.7347236 2:0.35859583 3:72 
32768 1:0.7347236 2:0.35859583 3:70 
32768 1:0.7347236 2:0.35859583 3:71 
32768 1:0.16411402 2:0.00062703307 3:51 
32768 1:0.16411402 2:0.00062703307 3:61 
32768 1:0.16411402 2:0.00062703307 3:72 
16264.23559402268 1:0.16411402 2:0.00062703307 3:83 
1238.023767759147 1:0.16411402 2:0.00062703307 3:110 
6512.09020930489 1:0.16411402 2:0.00062703307 3:128 
25141.19290472569 1:0.16411402 2:0.00062703307 3:83 
32768 1:0.16411402 2:0.00062703307 3:56 
32768 1:0.1601336 2:0.00010375742 3:59 
32768 1:0.7347236 2:0.35859583 3:68 
32768 1:0.7347236 2:0.35859583 3:71 
27247.58889714917 1:0.7347236 2:0.35859583 3:70 
28030.1478681299 1:0.7347236 2:0.35859583 3:69 
2506.870556140746 1:0.7347236 2:0.35859583 3:45 
32768 1:0.16411402 2:0.00062703307 3:54 
32768 1:0.16411402 2:0.00062703307 3:66 
1814.019348014281 1:0.16411402 2:0.00062703307 3:94 
32768 1:0.16411402 2:0.00062703307 3:62 
32768 1:0.1601336 2:0.00010375742 3:55 
29393.75686140613 1:0.7347236 2:0.35859583 3:68 
32768 1:0.7347236 2:0.35859583 3:72 
27998.79436243351 1:0.7347236 2:0.35859583 3:71 
26300.71974277603 1:0.7347236 2:0.35859583 3:66 
32768 1:0.7347236 2:0.35859583 3:62 
32768 1:0.16411402 2:0.00062703307 3:50 
32768 1:0.16411402 2:0.00062703307 3:61 
32768 1:0.16411402 2:0.00062703307 3:73 
11375.72742917734 1:0.16411402 2:0.00062703307 3:108 
32732.25829236623 1:0.16411402 2:0.00062703307 3:108 
996.2873876869739 1:0.16411402 2:0.00062703307 3:103 
32768 1:0.16411402 2:0.00062703307 3:75 
32768 1:0.16411402 2:0.00062703307 3:59 
32768 1:0.16411402 2:0.00062703307 3:49 
32768 1:0.1601336 2:0.00010375742 3:62 
32768 1:0.1601336 2:0.00010375742 3:50 
32768 1:0.1601336 2:0.00010375742 3:43 
32768 1:0.7347236 2:0.35859583 3:62 
125.203083295541 1:0.7347236 2:0.35859583 3:35 
32768 1:0.16411402 2:0.00062703307 3:58 
32768 1:0.16411402 2:0.00062703307 3:72 
24118.33945480203 1:0.16411402 2:0.00062703307 3:93 
32768 1:0.16411402 2:0.00062703307 3:101 
32768 1:0.16411402 2:0.00062703307 3:96 
31928.82401599151 1:0.16411402 2:0.00062703307 3:87 
32768 1:0.16411402 2:0.00062703307 3:69 
32768 1:0.16411402 2:0.00062703307 3:58 
32768 1:0.16411402 2:0.00062703307 3:56 
32768 1:0.1601336 2:0.00010375742 3:63 
32768 1:0.1601336 2:0.00010375742 3:65 
32768 1:0.1601336 2:0.00010375742 3:61 
32768 1:0.1601336 2:0.00010375742 3:52 
32768 1:0.1601336 2:0.00010375742 3:46 
32768 1:0.1601336 2:0.00010375742 3:43 
32768 1:0.7347236 2:0.35859583 3:42 
32768 1:0.7347236 2:0.35859583 3:42 
32768 1:0.16411402 2:0.00062703307 3:81 
27734.68563963686 1:0.16411402 2:0.00062703307 3:91 
11172.41317316289 1:0.16411402 2:0.00062703307 3:97 
4608.66580568982 1:0.16411402 2:0.00062703307 3:99 
2298.309608677155 1:0.16411402 2:0.00062703307 3:100 
24529.8489288502 1:0.16411402 2:0.00062703307 3:98 
462.3187559645175 1:0.16411402 2:0.00062703307 3:97 
32768 1:0.16411402 2:0.00062703307 3:76 
32768 1:0.16411402 2:0.00062703307 3:69 
32768 1:0.16411402 2:0.00062703307 3:68 
32768 1:0.16411402 2:0.00062703307 3:65 
32768 1:0.16411402 2:0.00062703307 3:60 
32768 1:0.16411402 2:0.00062703307 3:55 
32768 1:0.1601336 2:0.00010375742 3:59 
3430.691717353158 1:0.1601336 2:0.00010375742 3:79 
32768 1:0.1601336 2:0.00010375742 3:65 
32768 1:0.1601336 2:0.00010375742 3:66 
32768 1:0.1601336 2:0.00010375742 3:66 
32768 1:0.1601336 2:0.00010375742 3:66 
32768 1:0.1601336 2:0.00010375742 3:56 
32768 1:0.1601336 2:0.00010375742 3:42 
32768 1:0.7347236 2:0.35859583 3:37 
32768 1:0.7347236 2:0.35859583 3:42 
26744.57987779471 1:0.7347236 2:0.35859583 3:67 
5123.835486468365 1:0.16411402 2:0.00062703307 3:100 
30921.687747687 1:0.16411402 2:0.00062703307 3:103 
26494.02949595262 1:0.16411402 2:0.00062703307 3:94 
32768 1:0.16411402 2:0.00062703307 3:93 
32768 1:0.16411402 2:0.00062703307 3:91 
32768 1:0.16411402 2:0.00062703307 3:79 
32768 1:0.16411402 2:0.00062703307 3:70 
32768 1:0.16411402 2:0.00062703307 3:61 
32768 1:0.16411402 2:0.00062703307 3:55 
32768 1:0.16411402 2:0.00062703307 3:55 
32768 1:0.16411402 2:0.00062703307 3:59 
32768 1:0.1601336 2:0.00010375742 3:59 
32768 1:0.1601336 2:0.00010375742 3:59 
32768 1:0.1601336 2:0.00010375742 3:66 
1278.120021255316 1:0.1601336 2:0.00010375742 3:66 
2110.840330839551 1:0.1601336 2:0.00010375742 3:69 
32768 1:0.1601336 2:0.00010375742 3:55 
2419.12407703667 1:0.7347236 2:0.35859583 3:39 
2180.136100171786 1:0.7347236 2:0.35859583 3:44 
1831.832070793358 1:0.7347236 2:0.35859583 3:36 
4668.185683110379 1:0.16411402 2:0.00062703307 3:94 
32768 1:0.16411402 2:0.00062703307 3:74 
32768 1:0.16411402 2:0.00062703307 3:64 
32768 1:0.16411402 2:0.00062703307 3:57 
32768 1:0.16411402 2:0.00062703307 3:50 
32768 1:0.16411402 2:0.00062703307 3:45 
32768 1:0.16411402 2:0.00062703307 3:46 
32768 1:0.1601336 2:0.00010375742 3:65 
32768 1:0.1601336 2:0.00010375742 3:65 
19227.89382475999 1:0.1601336 2:0.00010375742 3:69 
32768 1:0.1601336 2:0.00010375742 3:58 
32768 1:0.1601336 2:0.00010375742 3:44 
32712.49763092673 1:0.7347236 2:0.35859583 3:36 
1397.865062421869 1:0.7347236 2:0.35859583 3:49 
32195.94853751747 1:0.16411402 2:0.00062703307 3:98 
32768 1:0.16411402 2:0.00062703307 3:96 
32768 1:0.16411402 2:0.00062703307 3:68 
32768 1:0.16411402 2:0.00062703307 3:61 
32768 1:0.16411402 2:0.00062703307 3:54 
32768 1:0.16411402 2:0.00062703307 3:50 
32768 1:0.16411402 2:0.00062703307 3:46 
32768 1:0.16411402 2:0.00062703307 3:42 
32768 1:0.16411402 2:0.00062703307 3:44 
20424.03917295299 1:0.1601336 2:0.00010375742 3:74 
32768 1:0.1601336 2:0.00010375742 3:60 
32768 1:0.1601336 2:0.00010375742 3:46 
32768 1:0.1601336 2:0.00010375742 3:37 
89.22598341929617 1:0.7347236 2:0.35859583 3:34 
881.6377323395806 1:0.7347236 2:0.35859583 3:41 
32768 1:0.7347236 2:0.35859583 3:44 
32768 1:0.16307139 2:0.00095313979 3:53 
27098.0759649344 1:0.16411402 2:0.00062703307 3:78 
32768 1:0.16411402 2:0.00062703307 3:63 
32768 1:0.16411402 2:0.00062703307 3:57 
32768 1:0.16411402 2:0.00062703307 3:51 
32768 1:0.16411402 2:0.00062703307 3:47 
32768 1:0.16411402 2:0.00062703307 3:47 
32768 1:0.16411402 2:0.00062703307 3:45 
32768 1:0.16411402 2:0.00062703307 3:42 
32768 1:0.1601336 2:0.00010375742 3:53 
32768 1:0.1601336 2:0.00010375742 3:65 
32768 1:0.1601336 2:0.00010375742 3:76 
32768 1:0.1601336 2:0.00010375742 3:74 
32768 1:0.1601336 2:0.00010375742 3:65 
32768 1:0.1601336 2:0.00010375742 3:65 
32768 1:0.1601336 2:0.00010375742 3:61 
32768 1:0.1601336 2:0.00010375742 3:47 
11721.29782429195 1:0.1601336 2:0.00010375742 3:38 
32768 1:0.7347236 2:0.35859583 3:44 
32364.11435093898 1:0.7347236 2:0.35859583 3:45 
682.9556191006575 1:0.7347236 2:0.35859583 3:43 
32768 1:0.7347236 2:0.35859583 3:43 
32768 1:0.16307139 2:0.00095313979 3:69 
32768 1:0.16307139 2:0.00095313979 3:64 
32768 1:0.16307139 2:0.00095313979 3:51 
32768 1:0.16411402 2:0.00062703307 3:60 
32768 1:0.16411402 2:0.00062703307 3:56 
32768 1:0.16411402 2:0.00062703307 3:45 
32768 1:0.16411402 2:0.00062703307 3:40 
32768 1:0.16411402 2:0.00062703307 3:39 
32768 1:0.16411402 2:0.00062703307 3:40 
32768 1:0.16411402 2:0.00062703307 3:39 
32768 1:0.1601336 2:0.00010375742 3:49 
32768 1:0.1601336 2:0.00010375742 3:61 
32768 1:0.1601336 2:0.00010375742 3:74 
32768 1:0.1601336 2:0.00010375742 3:76 
32768 1:0.1601336 2:0.00010375742 3:63 
32768 1:0.1601336 2:0.00010375742 3:64 
32768 1:0.1601336 2:0.00010375742 3:65 
32768 1:0.1601336 2:0.00010375742 3:59 
32768 1:0.1601336 2:0.00010375742 3:46 
32768 1:0.7347236 2:0.35859583 3:41 
32768 1:0.7347236 2:0.35859583 3:44 
32768 1:0.7347236 2:0.35859583 3:49 
32768 1:0.16307139 2:0.00095313979 3:57 
32768 1:0.16307139 2:0.00095313979 3:62 
32768 1:0.16307139 2:0.00095313979 3:66 
32768 1:0.16307139 2:0.00095313979 3:59 
32768 1:0.16307139 2:0.00095313979 3:52 
32768 1:0.16411402 2:0.00062703307 3:50 
32768 1:0.16411402 2:0.00062703307 3:40 
32768 1:0.16411402 2:0.00062703307 3:37 
32768 1:0.16411402 2:0.00062703307 3:38 
32768 1:0.1601336 2:0.00010375742 3:44 
32768 1:0.1601336 2:0.00010375742 3:54 
20268.99140877587 1:0.1601336 2:0.00010375742 3:75 
31436.22141412474 1:0.1601336 2:0.00010375742 3:75 
17421.47995014019 1:0.1601336 2:0.00010375742 3:71 
32768 1:0.1601336 2:0.00010375742 3:74 
2045.226287590905 1:0.1601336 2:0.00010375742 3:65 
32768 1:0.1601336 2:0.00010375742 3:63 
32768 1:0.1601336 2:0.00010375742 3:61 
32768 1:0.1601336 2:0.00010375742 3:55 
17874.94303005469 1:0.1601336 2:0.00010375742 3:41 
1263.173173509266 1:0.7347236 2:0.35859583 3:40 
2314.053412936606 1:0.7347236 2:0.35859583 3:60 
2507.494557246696 1:0.7347236 2:0.35859583 3:51 
32768 1:0.7347236 2:0.35859583 3:51 
32768 1:0.7347236 2:0.35859583 3:51 
32768 1:0.16307139 2:0.00095313979 3:51 
32768 1:0.16307139 2:0.00095313979 3:53 
32768 1:0.16307139 2:0.00095313979 3:58 
32768 1:0.16307139 2:0.00095313979 3:63 
32768 1:0.16307139 2:0.00095313979 3:65 
32768 1:0.16307139 2:0.00095313979 3:61 
32768 1:0.16307139 2:0.00095313979 3:57 
32768 1:0.16307139 2:0.00095313979 3:42 
32768 1:0.1601336 2:0.00010375742 3:43 
32768 1:0.1601336 2:0.00010375742 3:51 
6111.879153822287 1:0.1601336 2:0.00010375742 3:63 
7039.731413744841 1:0.1601336 2:0.00010375742 3:69 
26431.97915115208 1:0.1601336 2:0.00010375742 3:70 
3830.985443002279 1:0.1601336 2:0.00010375742 3:68 
32609.0093938653 1:0.1601336 2:0.00010375742 3:74 
30599.51870227913 1:0.1601336 2:0.00010375742 3:69 
0.008009096976217015 1:0.1601336 2:0.00010375742 3:63 
32768 1:0.1601336 2:0.00010375742 3:62 
32768 1:0.1601336 2:0.00010375742 3:53 
32768 1:0.1601336 2:0.00010375742 3:36 
828.7537499929466 1:0.7347236 2:0.35859583 3:47 
1380.68789090502 1:0.7347236 2:0.35859583 3:63 
1531.717101321195 1:0.7347236 2:0.35859583 3:56 
3149.371868544838 1:0.7347236 2:0.35859583 3:58 
32768 1:0.7347236 2:0.35859583 3:47 
32768 1:0.7347236 2:0.35859583 3:49 
32768 1:0.16307139 2:0.00095313979 3:60 
32768 1:0.16307139 2:0.00095313979 3:63 
27966.21628569325 1:0.16307139 2:0.00095313979 3:67 
32768 1:0.16307139 2:0.00095313979 3:71 
32768 1:0.16307139 2:0.00095313979 3:70 
32768 1:0.16307139 2:0.00095313979 3:68 
32768 1:0.16307139 2:0.00095313979 3:65 
32768 1:0.16307139 2:0.00095313979 3:59 
32768 1:0.1601336 2:0.00010375742 3:48 
32768 1:0.1601336 2:0.00010375742 3:61 
32768 1:0.1601336 2:0.00010375742 3:68 
21238.08856275196 1:0.1601336 2:0.00010375742 3:76 
32768 1:0.1601336 2:0.00010375742 3:70 
31698.38205214151 1:0.1601336 2:0.00010375742 3:70 
29999.47041440434 1:0.1601336 2:0.00010375742 3:71 
1061.149315696053 1:0.1601336 2:0.00010375742 3:66 
32768 1:0.1601336 2:0.00010375742 3:51 
1704.923577825201 1:0.7347236 2:0.35859583 3:38 
32768 1:0.7347236 2:0.35859583 3:41 
32768 1:0.7347236 2:0.35859583 3:49 
490.6237713797174 1:0.7347236 2:0.35859583 3:52 
32768 1:0.7347236 2:0.35859583 3:58 
32604.17450215078 1:0.7347236 2:0.35859583 3:43 
32768 1:0.7347236 2:0.35859583 3:41 
32768 1:0.16307139 2:0.00095313979 3:61 
32768 1:0.16307139 2:0.00095313979 3:62 
32768 1:0.16307139 2:0.00095313979 3:64 
32768 1:0.16307139 2:0.00095313979 3:69 
4598.368339282321 1:0.16307139 2:0.00095313979 3:73 
32768 1:0.16307139 2:0.00095313979 3:74 
31876.12491548617 1:0.16307139 2:0.00095313979 3:73 
32768 1:0.16307139 2:0.00095313979 3:71 
32768 1:0.16307139 2:0.00095313979 3:54 
32768 1:0.16307139 2:0.00095313979 3:37 
32768 1:0.1601336 2:0.00010375742 3:38 
32768 1:0.1601336 2:0.00010375742 3:53 
32656.29702346877 1:0.1601336 2:0.00010375742 3:75 
891.3898938066786 1:0.1601336 2:0.00010375742 3:79 
15805.87988134131 1:0.1601336 2:0.00010375742 3:92 
810.1812931970638 1:0.7347236 2:0.35859583 3:50 
32768 1:0.7347236 2:0.35859583 3:52 
1690.266495620236 1:0.7347236 2:0.35859583 3:53 
32768 1:0.7347236 2:0.35859583 3:51 
2321.35883590177 1:0.7347236 2:0.35859583 3:48 
32768 1:0.16307139 2:0.00095313979 3:64 
32768 1:0.16307139 2:0.00095313979 3:64 
32768 1:0.16307139 2:0.00095313979 3:66 
32768 1:0.16307139 2:0.00095313979 3:68 
32768 1:0.16307139 2:0.00095313979 3:70 
32768 1:0.16307139 2:0.00095313979 3:67 
32768 1:0.16307139 2:0.00095313979 3:58 
32768 1:0.1601336 2:0.00010375742 3:38 
32768 1:0.1601336 2:0.00010375742 3:52 
32768 1:0.1601336 2:0.00010375742 3:59 
32259.55807150492 1:0.1601336 2:0.00010375742 3:68 
32768 1:0.7347236 2:0.35859583 3:53 
32768 1:0.7347236 2:0.35859583 3:52 
32768 1:0.7347236 2:0.35859583 3:61 
32768 1:0.7347236 2:0.35859583 3:60 
32768 1:0.7347236 2:0.35859583 3:63 
32768 1:0.16307139 2:0.00095313979 3:66 
32768 1:0.16307139 2:0.00095313979 3:66 
32768 1:0.16307139 2:0.00095313979 3:67 
32768 1:0.16307139 2:0.00095313979 3:69 
32768 1:0.16307139 2:0.00095313979 3:71 
32768 1:0.16307139 2:0.00095313979 3:69 
32768 1:0.16307139 2:0.00095313979 3:66 
32768 1:0.16307139 2:0.00095313979 3:63 
32768 1:0.16307139 2:0.00095313979 3:57 
32768 1:0.16307139 2:0.00095313979 3:38 
32768 1:0.1601336 2:0.00010375742 3:38 
32768 1:0.1601336 2:0.00010375742 3:39 
32768 1:0.1601336 2:0.00010375742 3:45 
32768 1:0.1601336 2:0.00010375742 3:55 
10533.7228500418 1:0.1601336 2:0.00010375742 3:65 
815.374145554538 1:0.7347236 2:0.35859583 3:57 
32768 1:0.7347236 2:0.35859583 3:57 
32768 1:0.7347236 2:0.35859583 3:58 
32768 1:0.7347236 2:0.35859583 3:60 
32768 1:0.7347236 2:0.35859583 3:62 
32768 1:0.7347236 2:0.35859583 3:62 
32573.27364600766 1:0.7347236 2:0.35859583 3:63 
32294.69286027486 1:0.7347236 2:0.35859583 3:62 
32768 1:0.7347236 2:0.35859583 3:61 
32768 1:0.16307139 2:0.00095313979 3:64 
32768 1:0.16307139 2:0.00095313979 3:66 
32768 1:0.16307139 2:0.00095313979 3:66 
32768 1:0.16307139 2:0.00095313979 3:67 
32768 1:0.16307139 2:0.00095313979 3:69 
32768 1:0.16307139 2:0.00095313979 3:69 
32768 1:0.16307139 2:0.00095313979 3:68 
32768 1:0.16307139 2:0.00095313979 3:64 
32768 1:0.16307139 2:0.00095313979 3:61 
32768 1:0.16307139 2:0.00095313979 3:57 
32768 1:0.16307139 2:0.00095313979 3:38 
1397.228637300724 1:0.7347236 2:0.35859583 3:55 
32768 1:0.7347236 2:0.35859583 3:58 
32768 1:0.7347236 2:0.35859583 3:57 
32768 1:0.7347236 2:0.35859583 3:53 
32768 1:0.7347236 2:0.35859583 3:56 
32767.23307381018 1:0.7347236 2:0.35859583 3:60 
32768 1:0.7347236 2:0.35859583 3:56 
32768 1:0.7347236 2:0.35859583 3:55 
32767.98746687134 1:0.7347236 2:0.35859583 3:47 
32768 1:0.16307139 2:0.00095313979 3:65 
32768 1:0.16307139 2:0.00095313979 3:64 
32768 1:0.16307139 2:0.00095313979 3:64 
32768 1:0.16307139 2:0.00095313979 3:65 
32768 1:0.16307139 2:0.00095313979 3:66 
32768 1:0.16307139 2:0.00095313979 3:67 
32768 1:0.16307139 2:0.00095313979 3:66 
32768 1:0.16307139 2:0.00095313979 3:62 
32768 1:0.16307139 2:0.00095313979 3:59 
32768 1:0.16307139 2:0.00095313979 3:58 
32768 1:0.19735887 2:0.013258476 3:68 
32768 1:0.19735887 2:0.013258476 3:82 
32768 1:0.19735887 2:0.013258476 3:82 
32768 1:0.7347236 2:0.35859583 3:57 
32768 1:0.7347236 2:0.35859583 3:57 
32768 1:0.7347236 2:0.35859583 3:53 
32768 1:0.7347236 2:0.35859583 3:51 
3019.609407724447 1:0.7347236 2:0.35859583 3:59 
32767.99918953931 1:0.7347236 2:0.35859583 3:51 
377.2530704481471 1:0.7347236 2:0.35859583 3:46 
32500.96472534451 1:0.7347236 2:0.35859583 3:40 
32768 1:0.16307139 2:0.00095313979 3:64 
32768 1:0.16307139 2:0.00095313979 3:60 
32768 1:0.16307139 2:0.00095313979 3:61 
32768 1:0.16307139 2:0.00095313979 3:61 
32768 1:0.16307139 2:0.00095313979 3:62 
32768 1:0.16307139 2:0.00095313979 3:62 
32768 1:0.16307139 2:0.00095313979 3:60 
32768 1:0.16307139 2:0.00095313979 3:56 
32768 1:0.16307139 2:0.00095313979 3:53 
32768 1:0.16307139 2:0.00095313979 3:46 
32768 1:0.19735887 2:0.013258476 3:64 
32768 1:0.19735887 2:0.013258476 3:93 
32768 1:0.19735887 2:0.013258476 3:94 
32768 1:0.19735887 2:0.013258476 3:117 
32768 1:0.7347236 2:0.35859583 3:53 
2942.386055342272 1:0.7347236 2:0.35859583 3:54 
32742.22062537325 1:0.7347236 2:0.35859583 3:53 
32761.05131694708 1:0.7347236 2:0.35859583 3:54 
32768 1:0.7347236 2:0.35859583 3:55 
32768 1:0.7347236 2:0.35859583 3:48 
32728.69856927747 1:0.7347236 2:0.35859583 3:41 
32768 1:0.16307139 2:0.00095313979 3:62 
32768 1:0.16307139 2:0.00095313979 3:58 
32768 1:0.16307139 2:0.00095313979 3:57 
32768 1:0.16307139 2:0.00095313979 3:56 
32768 1:0.16307139 2:0.00095313979 3:56 
32768 1:0.16307139 2:0.00095313979 3:55 
32768 1:0.16307139 2:0.00095313979 3:52 
32768 1:0.16307139 2:0.00095313979 3:47 
32768 1:0.16307139 2:0.00095313979 3:43 
32768 1:0.19735887 2:0.013258476 3:62 
32768 1:0.19735887 2:0.013258476 3:100 
12370.12880894926 1:0.19735887 2:0.013258476 3:143 
27473.19436122321 1:0.19735887 2:0.013258476 3:167 
32768 1:0.19735887 2:0.013258476 3:95 
32768 1:0.7347236 2:0.35859583 3:50 
32564.95782116206 1:0.7347236 2:0.35859583 3:52 
32619.74472143317 1:0.7347236 2:0.35859583 3:49 
32675.68618696639 1:0.7347236 2:0.35859583 3:46 
32768 1:0.7347236 2:0.35859583 3:48 
32768 1:0.16307139 2:0.00095313979 3:62 
32768 1:0.16307139 2:0.00095313979 3:57 
32768 1:0.16307139 2:0.00095313979 3:55 
32768 1:0.16307139 2:0.00095313979 3:53 
32768 1:0.16307139 2:0.00095313979 3:52 
32768 1:0.16307139 2:0.00095313979 3:50 
32768 1:0.16307139 2:0.00095313979 3:45 
32768 1:0.16307139 2:0.00095313979 3:39 
32768 1:0.19735887 2:0.013258476 3:62 
32768 1:0.19735887 2:0.013258476 3:111 
32768 1:0.19735887 2:0.013258476 3:92 
32768 1:0.24970669 2:0.026740097 3:38 
32768 1:0.16307139 2:0.00095313979 3:53 
32768 1:0.16307139 2:0.00095313979 3:56 
32768 1:0.16307139 2:0.00095313979 3:58 
32768 1:0.16307139 2:0.00095313979 3:57 
32768 1:0.16307139 2:0.00095313979 3:52 
32768 1:0.16307139 2:0.00095313979 3:43 
32768 1:0.19735887 2:0.013258476 3:97 
32768 1:0.19735887 2:0.013258476 3:114 
27471.60683440235 1:0.19735887 2:0.013258476 3:153 
9425.274553032017 1:0.24970669 2:0.026740097 3:41 
32768 1:0.16307139 2:0.00095313979 3:53 
32768 1:0.16307139 2:0.00095313979 3:53 
32768 1:0.16307139 2:0.00095313979 3:51 
32768 1:0.16307139 2:0.00095313979 3:44 
30668.18811032306 1:0.16307139 2:0.00095313979 3:35 
32768 1:0.19735887 2:0.013258476 3:61 
32768 1:0.19735887 2:0.013258476 3:97 
32768 1:0.19735887 2:0.013258476 3:143 
32768 1:0.24970669 2:0.026740097 3:38 
32768 1:0.19735887 2:0.013258476 3:92 
32768 1:0.19735887 2:0.013258476 3:115 
32768 1:0.19735887 2:0.013258476 3:145 
32768 1:0.19735887 2:0.013258476 3:69 
32768 1:0.19735887 2:0.013258476 3:92 
32768 1:0.19735887 2:0.013258476 3:145 
32768 1:0.19735887 2:0.013258476 3:114 
32768 1:0.24970669 2:0.026740097 3:41 
32768 1:0.19735887 2:0.013258476 3:145 
32768 1:0.19735887 2:0.013258476 3:170 
32768 1:0.19735887 2:0.013258476 3:87 
32768 1:0.18518519 2:0.0085733882 3:48 
18830.95215736492 1:0.18518519 2:0.0085733882 3:49 
32768 1:0.18518519 2:0.0085733882 3:47 
32768 1:0.24970669 2:0.026740097 3:41 
19356.90642447495 1:0.19735887 2:0.013258476 3:157 
32768 1:0.18518519 2:0.0085733882 3:49 
32768 1:0.19735887 2:0.013258476 3:143 
17445.12363097681 1:0.19735887 2:0.013258476 3:149 
20525.35987537105 1:0.19735887 2:0.013258476 3:162 
32768 1:0.19735887 2:0.013258476 3:149 
26300.64840233263 1:0.19735887 2:0.013258476 3:111 
32768 1:0.18518519 2:0.0085733882 3:48 
32768 1:0.18207078 2:0.0065966895 3:46 
32768 1:0.18207078 2:0.0065966895 3:39 
16682.7927435106 1:0.19735887 2:0.013258476 3:138 
3440.194926777866 1:0.19735887 2:0.013258476 3:150 
32768 1:0.19735887 2:0.013258476 3:106 
32768 1:0.18207078 2:0.0065966895 3:37 
32768 1:0.18207078 2:0.0065966895 3:40 
32768 1:0.18207078 2:0.0065966895 3:41 
214.239325217847 1:0.19735887 2:0.013258476 3:159 
19578.9052775935 1:0.19735887 2:0.013258476 3:144 
10808.71130885136 1:0.19735887 2:0.013258476 3:161 
27715.04821281268 1:0.19735887 2:0.013258476 3:159 
14050.99128968677 1:0.19735887 2:0.013258476 3:163 
32768 1:0.19735887 2:0.013258476 3:149 
17724.41005871003 1:0.24970669 2:0.026740097 3:43 
32768 1:0.18207078 2:0.0065966895 3:38 
32768 1:0.18207078 2:0.0065966895 3:39 
32768 1:0.18207078 2:0.0065966895 3:42 
32768 1:0.18207078 2:0.0065966895 3:42 
19232.6029106044 1:0.19735887 2:0.013258476 3:168 
17616.73507577552 1:0.19735887 2:0.013258476 3:165 
832.2826301293677 1:0.19735887 2:0.013258476 3:156 
17506.04118451241 1:0.19735887 2:0.013258476 3:155 
32768 1:0.19735887 2:0.013258476 3:148 
32768 1:0.19735887 2:0.013258476 3:115 
32768 1:0.18207078 2:0.0065966895 3:47 
32768 1:0.18207078 2:0.0065966895 3:40 
32768 1:0.18207078 2:0.0065966895 3:37 
32768 1:0.18207078 2:0.0065966895 3:39 
32768 1:0.18207078 2:0.0065966895 3:42 
32768 1:0.18207078 2:0.0065966895 3:44 
32768 1:0.18207078 2:0.0065966895 3:41 
32768 1:0.18207078 2:0.0065966895 3:48 
32768 1:0.18207078 2:0.0065966895 3:41 
32768 1:0.19735887 2:0.013258476 3:161 
12562.85250066619 1:0.19735887 2:0.013258476 3:152 
28307.8643866332 1:0.19735887 2:0.013258476 3:147 
32768 1:0.19735887 2:0.013258476 3:125 
32768 1:0.19735887 2:0.013258476 3:123 
32768 1:0.19735887 2:0.013258476 3:117 
32768 1:0.18207078 2:0.0065966895 3:52 
32768 1:0.18207078 2:0.0065966895 3:42 
32768 1:0.18207078 2:0.0065966895 3:44 
32768 1:0.18207078 2:0.0065966895 3:44 
32768 1:0.18207078 2:0.0065966895 3:47 
32768 1:0.18207078 2:0.0065966895 3:50 
32768 1:0.18207078 2:0.0065966895 3:50 
32768 1:0.18207078 2:0.0065966895 3:49 
32768 1:0.18207078 2:0.0065966895 3:52 
32768 1:0.18207078 2:0.0065966895 3:52 
32768 1:0.18207078 2:0.0065966895 3:47 
6164.588969231289 1:0.19735887 2:0.013258476 3:151 
13360.85724115088 1:0.19735887 2:0.013258476 3:141 
5852.925742829816 1:0.19735887 2:0.013258476 3:139 
22107.11973569501 1:0.19735887 2:0.013258476 3:131 
32768 1:0.19735887 2:0.013258476 3:117 
16645.45513894708 1:0.19735887 2:0.013258476 3:131 
4248.887046326298 1:0.19735887 2:0.013258476 3:113 
32768 1:0.18207078 2:0.0065966895 3:47 
32768 1:0.18207078 2:0.0065966895 3:49 
32768 1:0.18207078 2:0.0065966895 3:47 
32768 1:0.18207078 2:0.0065966895 3:46 
32768 1:0.18207078 2:0.0065966895 3:46 
32768 1:0.18207078 2:0.0065966895 3:49 
32768 1:0.18207078 2:0.0065966895 3:52 
32768 1:0.18207078 2:0.0065966895 3:55 
32768 1:0.18207078 2:0.0065966895 3:58 
32768 1:0.18207078 2:0.0065966895 3:54 
32768 1:0.18207078 2:0.0065966895 3:59 
32768 1:0.18207078 2:0.0065966895 3:64 
32768 1:0.18207078 2:0.0065966895 3:55 
32768 1:0.18207078 2:0.0065966895 3:40 
3963.019492975651 1:0.19735887 2:0.013258476 3:140 
21938.86456230075 1:0.19735887 2:0.013258476 3:120 
32768 1:0.19735887 2:0.013258476 3:126 
10900.83348351402 1:0.19735887 2:0.013258476 3:118 
32768 1:0.19735887 2:0.013258476 3:115 
10184.43343972299 1:0.19735887 2:0.013258476 3:110 
32768 1:0.19735887 2:0.013258476 3:105 
32768 1:0.18207078 2:0.0065966895 3:46 
32768 1:0.18207078 2:0.0065966895 3:52 
32768 1:0.18207078 2:0.0065966895 3:48 
32768 1:0.18207078 2:0.0065966895 3:49 
32768 1:0.18207078 2:0.0065966895 3:50 
32768 1:0.18207078 2:0.0065966895 3:52 
32768 1:0.18207078 2:0.0065966895 3:55 
32768 1:0.18207078 2:0.0065966895 3:58 
32768 1:0.18207078 2:0.0065966895 3:60 
32768 1:0.18207078 2:0.0065966895 3:59 
32768 1:0.18207078 2:0.0065966895 3:67 
32768 1:0.18207078 2:0.0065966895 3:74 
32768 1:0.18207078 2:0.0065966895 3:71 
32768 1:0.18207078 2:0.0065966895 3:59 
32768 1:0.18207078 2:0.0065966895 3:47 
32768 1:0.18207078 2:0.0065966895 3:40 
32768 1:0.18207078 2:0.0065966895 3:38 
32768 1:0.19735887 2:0.013258476 3:102 
32768 1:0.19735887 2:0.013258476 3:102 
32768 1:0.19735887 2:0.013258476 3:112 
13242.50493760924 1:0.19735887 2:0.013258476 3:119 
32768 1:0.19735887 2:0.013258476 3:118 
32768 1:0.19735887 2:0.013258476 3:120 
32768 1:0.19735887 2:0.013258476 3:103 
32768 1:0.19735887 2:0.013258476 3:106 
32768 1:0.19735887 2:0.013258476 3:108 
32768 1:0.19735887 2:0.013258476 3:104 
32768 1:0.19735887 2:0.013258476 3:96 
32768 1:0.19735887 2:0.013258476 3:87 
32768 1:0.18207078 2:0.0065966895 3:51 
32768 1:0.18207078 2:0.0065966895 3:54 
32768 1:0.18207078 2:0.0065966895 3:54 
32768 1:0.18207078 2:0.0065966895 3:49 
32768 1:0.18207078 2:0.0065966895 3:54 
32768 1:0.18207078 2:0.0065966895 3:54 
32768 1:0.18207078 2:0.0065966895 3:57 
32768 1:0.18207078 2:0.0065966895 3:60 
32768 1:0.18207078 2:0.0065966895 3:62 
32768 1:0.18207078 2:0.0065966895 3:62 
32768 1:0.18207078 2:0.0065966895 3:70 
32768 1:0.18207078 2:0.0065966895 3:78 
32768 1:0.18207078 2:0.0065966895 3:81 
32768 1:0.18207078 2:0.0065966895 3:76 
32768 1:0.18207078 2:0.0065966895 3:66 
32768 1:0.18207078 2:0.0065966895 3:55 
32768 1:0.18207078 2:0.0065966895 3:49 
32768 1:0.18207078 2:0.0065966895 3:48 
32768 1:0.19735887 2:0.013258476 3:94 
32768 1:0.19735887 2:0.013258476 3:96 
32768 1:0.19735887 2:0.013258476 3:102 
32768 1:0.19735887 2:0.013258476 3:118 
8998.116174130895 1:0.19735887 2:0.013258476 3:112 
32768 1:0.19735887 2:0.013258476 3:103 
32768 1:0.19735887 2:0.013258476 3:95 
32768 1:0.19735887 2:0.013258476 3:97 
32768 1:0.19735887 2:0.013258476 3:99 
32768 1:0.19735887 2:0.013258476 3:98 
32768 1:0.19735887 2:0.013258476 3:93 
32768 1:0.24970669 2:0.026740097 3:62 
32768 1:0.24970669 2:0.026740097 3:69 
32768 1:0.24970669 2:0.026740097 3:68 
13555.87060712002 1:0.24970669 2:0.026740097 3:51 
31321.51357267852 1:0.24970669 2:0.026740097 3:43 
32768 1:0.18207078 2:0.0065966895 3:53 
32768 1:0.18207078 2:0.0065966895 3:52 
32768 1:0.18207078 2:0.0065966895 3:53 
32768 1:0.18207078 2:0.0065966895 3:53 
32768 1:0.18207078 2:0.0065966895 3:52 
32768 1:0.18207078 2:0.0065966895 3:52 
32768 1:0.18207078 2:0.0065966895 3:54 
32768 1:0.18207078 2:0.0065966895 3:57 
32768 1:0.18207078 2:0.0065966895 3:60 
32768 1:0.18207078 2:0.0065966895 3:64 
32768 1:0.18207078 2:0.0065966895 3:70 
32768 1:0.18207078 2:0.0065966895 3:79 
32768 1:0.18207078 2:0.0065966895 3:85 
30498.35401685522 1:0.18207078 2:0.0065966895 3:84 
32768 1:0.18207078 2:0.0065966895 3:76 
32768 1:0.18207078 2:0.0065966895 3:64 
32768 1:0.18207078 2:0.0065966895 3:56 
32768 1:0.18207078 2:0.0065966895 3:51 
32768 1:0.19735887 2:0.013258476 3:100 
32768 1:0.19735887 2:0.013258476 3:99 
32768 1:0.19735887 2:0.013258476 3:99 
32768 1:0.19735887 2:0.013258476 3:105 
32768 1:0.19735887 2:0.013258476 3:114 
32768 1:0.19735887 2:0.013258476 3:115 
32768 1:0.19735887 2:0.013258476 3:101 
32768 1:0.19735887 2:0.013258476 3:95 
32768 1:0.19735887 2:0.013258476 3:92 
22728.31764479398 1:0.19735887 2:0.013258476 3:89 
32768 1:0.19735887 2:0.013258476 3:88 
32768 1:0.19735887 2:0.013258476 3:87 
32768 1:0.24970669 2:0.026740097 3:75 
32768 1:0.24970669 2:0.026740097 3:71 
29805.1111843296 1:0.24970669 2:0.026740097 3:81 
32768 1:0.24970669 2:0.026740097 3:64 
32765.01793046058 1:0.24970669 2:0.026740097 3:41 
32768 1:0.18207078 2:0.0065966895 3:46 
32768 1:0.18207078 2:0.0065966895 3:50 
32768 1:0.18207078 2:0.0065966895 3:56 
32768 1:0.18207078 2:0.0065966895 3:59 
32768 1:0.18207078 2:0.0065966895 3:56 
32768 1:0.18207078 2:0.0065966895 3:54 
32768 1:0.18207078 2:0.0065966895 3:56 
32768 1:0.18207078 2:0.0065966895 3:56 
32768 1:0.18207078 2:0.0065966895 3:54 
32768 1:0.18207078 2:0.0065966895 3:61 
32768 1:0.18207078 2:0.0065966895 3:76 
32768 1:0.18207078 2:0.0065966895 3:89 
32768 1:0.18207078 2:0.0065966895 3:91 
32768 1:0.18207078 2:0.0065966895 3:87 
32768 1:0.18207078 2:0.0065966895 3:80 
32768 1:0.18207078 2:0.0065966895 3:68 
32768 1:0.18207078 2:0.0065966895 3:57 
32768 1:0.18207078 2:0.0065966895 3:55 
32768 1:0.18207078 2:0.0065966895 3:46 
32768 1:0.19735887 2:0.013258476 3:82 
32768 1:0.19735887 2:0.013258476 3:92 
32768 1:0.19735887 2:0.013258476 3:93 
32768 1:0.19735887 2:0.013258476 3:87 
32768 1:0.24970669 2:0.026740097 3:95 
32768 1:0.24970669 2:0.026740097 3:85 
28003.44980092519 1:0.24970669 2:0.026740097 3:81 
32768 1:0.24970669 2:0.026740097 3:88 
32768 1:0.24970669 2:0.026740097 3:87 
19172.71862131032 1:0.24970669 2:0.026740097 3:72 
32768 1:0.24970669 2:0.026740097 3:71 
7485.971929294379 1:0.24970669 2:0.026740097 3:50 
32768 1:0.18207078 2:0.0065966895 3:46 
32768 1:0.18207078 2:0.0065966895 3:45 
32768 1:0.18207078 2:0.0065966895 3:50 
32768 1:0.18207078 2:0.0065966895 3:54 
32768 1:0.18207078 2:0.0065966895 3:53 
32768 1:0.18207078 2:0.0065966895 3:56 
32768 1:0.18207078 2:0.0065966895 3:60 
32768 1:0.18207078 2:0.0065966895 3:60 
32768 1:0.18207078 2:0.0065966895 3:58 
32768 1:0.18207078 2:0.0065966895 3:61 
32768 1:0.18207078 2:0.0065966895 3:73 
32768 1:0.18207078 2:0.0065966895 3:85 
32768 1:0.18207078 2:0.0065966895 3:86 
32768 1:0.18207078 2:0.0065966895 3:83 
32768 1:0.18207078 2:0.0065966895 3:78 
32768 1:0.18207078 2:0.0065966895 3:69 
32768 1:0.18207078 2:0.0065966895 3:59 
32768 1:0.18207078 2:0.0065966895 3:54 
32768 1:0.18207078 2:0.0065966895 3:42 
32768 1:0.19735887 2:0.013258476 3:70 
32768 1:0.19735887 2:0.013258476 3:70 
32768 1:0.19735887 2:0.013258476 3:69 
32768 1:0.19735887 2:0.013258476 3:68 
32768 1:0.24970669 2:0.026740097 3:97 
32768 1:0.24970669 2:0.026740097 3:85 
32768 1:0.24970669 2:0.026740097 3:69 
32768 1:0.18207078 2:0.0065966895 3:45 
32768 1:0.18207078 2:0.0065966895 3:50 
32768 1:0.18207078 2:0.0065966895 3:51 
32768 1:0.18207078 2:0.0065966895 3:53 
32768 1:0.18207078 2:0.0065966895 3:57 
32768 1:0.18207078 2:0.0065966895 3:62 
32768 1:0.18207078 2:0.0065966895 3:62 
32768 1:0.18207078 2:0.0065966895 3:58 
32768 1:0.18207078 2:0.0065966895 3:65 
32768 1:0.18207078 2:0.0065966895 3:75 
32768 1:0.18207078 2:0.0065966895 3:84 
32768 1:0.18207078 2:0.0065966895 3:86 
32768 1:0.18207078 2:0.0065966895 3:84 
32768 1:0.18207078 2:0.0065966895 3:80 
32768 1:0.18207078 2:0.0065966895 3:72 
32768 1:0.18207078 2:0.0065966895 3:65 
32768 1:0.18207078 2:0.0065966895 3:59 
32768 1:0.18207078 2:0.0065966895 3:42 
32768 1:0.19735887 2:0.013258476 3:68 
32768 1:0.19735887 2:0.013258476 3:68 
32768 1:0.19735887 2:0.013258476 3:68 
32768 1:0.19735887 2:0.013258476 3:61 
32768 1:0.19735887 2:0.013258476 3:60 
32768 1:0.19735887 2:0.013258476 3:60 
32768 1:0.24970669 2:0.026740097 3:109 
32768 1:0.24970669 2:0.026740097 3:112 
32768 1:0.24970669 2:0.026740097 3:109 
32768 1:0.24970669 2:0.026740097 3:101 
24422.04964113 1:0.24970669 2:0.026740097 3:92 
32768 1:0.24970669 2:0.026740097 3:79 
32768 1:0.24970669 2:0.026740097 3:71 
11940.87167289477 1:0.24970669 2:0.026740097 3:72 
32768 1:0.24970669 2:0.026740097 3:68 
32768 1:0.18207078 2:0.0065966895 3:50 
32768 1:0.18207078 2:0.0065966895 3:54 
32768 1:0.18207078 2:0.0065966895 3:54 
32768 1:0.18207078 2:0.0065966895 3:55 
32768 1:0.18207078 2:0.0065966895 3:59 
32768 1:0.18207078 2:0.0065966895 3:62 
32768 1:0.18207078 2:0.0065966895 3:59 
32768 1:0.18207078 2:0.0065966895 3:53 
32768 1:0.18207078 2:0.0065966895 3:65 
32768 1:0.18207078 2:0.0065966895 3:72 
32768 1:0.18207078 2:0.0065966895 3:80 
32768 1:0.18207078 2:0.0065966895 3:83 
32768 1:0.18207078 2:0.0065966895 3:82 
32768 1:0.18207078 2:0.0065966895 3:76 
32768 1:0.18207078 2:0.0065966895 3:68 
32768 1:0.18207078 2:0.0065966895 3:62 
32768 1:0.18207078 2:0.0065966895 3:65 
32768 1:0.18207078 2:0.0065966895 3:44 
32768 1:0.19735887 2:0.013258476 3:61 
32768 1:0.19735887 2:0.013258476 3:58 
32768 1:0.24970669 2:0.026740097 3:98 
503.5758822398817 1:0.24970669 2:0.026740097 3:114 
32768 1:0.24970669 2:0.026740097 3:113 
3376.219870075547 1:0.24970669 2:0.026740097 3:107 
32768 1:0.24970669 2:0.026740097 3:103 
22636.70785262854 1:0.24970669 2:0.026740097 3:96 
27079.60635712384 1:0.24970669 2:0.026740097 3:84 
9768.689353598096 1:0.24970669 2:0.026740097 3:77 
32768 1:0.24970669 2:0.026740097 3:79 
19249.4373645848 1:0.24970669 2:0.026740097 3:76 
32768 1:0.18207078 2:0.0065966895 3:48 
32768 1:0.18207078 2:0.0065966895 3:53 
32768 1:0.18207078 2:0.0065966895 3:54 
32768 1:0.18207078 2:0.0065966895 3:55 
32768 1:0.18207078 2:0.0065966895 3:57 
32768 1:0.18207078 2:0.0065966895 3:60 
32768 1:0.18207078 2:0.0065966895 3:57 
32768 1:0.18207078 2:0.0065966895 3:52 
32768 1:0.18207078 2:0.0065966895 3:56 
32768 1:0.18207078 2:0.0065966895 3:60 
32768 1:0.18207078 2:0.0065966895 3:67 
32768 1:0.18207078 2:0.0065966895 3:72 
32768 1:0.18207078 2:0.0065966895 3:72 
32768 1:0.18207078 2:0.0065966895 3:64 
32768 1:0.18207078 2:0.0065966895 3:54 
32768 1:0.18207078 2:0.0065966895 3:48 
32768 1:0.18207078 2:0.0065966895 3:63 
32436.32334395749 1:0.18207078 2:0.0065966895 3:43 
11384.27602999207 1:0.24970669 2:0.026740097 3:102 
32768 1:0.24970669 2:0.026740097 3:107 
32768 1:0.24970669 2:0.026740097 3:108 
32768 1:0.24970669 2:0.026740097 3:107 
32768 1:0.24970669 2:0.026740097 3:101 
32768 1:0.24970669 2:0.026740097 3:98 
32768 1:0.18207078 2:0.0065966895 3:43 
32768 1:0.18207078 2:0.0065966895 3:48 
32768 1:0.18207078 2:0.0065966895 3:50 
32768 1:0.18207078 2:0.0065966895 3:52 
32768 1:0.18207078 2:0.0065966895 3:55 
32768 1:0.18207078 2:0.0065966895 3:55 
32768 1:0.18207078 2:0.0065966895 3:53 
32768 1:0.18207078 2:0.0065966895 3:50 
32768 1:0.18207078 2:0.0065966895 3:50 
32768 1:0.18207078 2:0.0065966895 3:55 
32768 1:0.18207078 2:0.0065966895 3:62 
32768 1:0.18207078 2:0.0065966895 3:63 
32768 1:0.18207078 2:0.0065966895 3:55 
32768 1:0.18207078 2:0.0065966895 3:47 
32768 1:0.18207078 2:0.0065966895 3:43 
32768 1:0.18207078 2:0.0065966895 3:50 
11.57121548601184 1:0.87404855 2:0.65049881 3:96 
32768 1:0.24970669 2:0.026740097 3:98 
32768 1:0.24970669 2:0.026740097 3:97 
32768 1:0.24970669 2:0.026740097 3:98 
32768 1:0.24970669 2:0.026740097 3:99 
32768 1:0.24970669 2:0.026740097 3:97 
32768 1:0.24970669 2:0.026740097 3:96 
32768 1:0.18207078 2:0.0065966895 3:40 
32768 1:0.18207078 2:0.0065966895 3:42 
777.3819067158149 1:0.18207078 2:0.0065966895 3:42 
32768 1:0.18207078 2:0.0065966895 3:45 
32768 1:0.18207078 2:0.0065966895 3:49 
32768 1:0.18207078 2:0.0065966895 3:50 
32768 1:0.18207078 2:0.0065966895 3:47 
32768 1:0.18207078 2:0.0065966895 3:43 
32768 1:0.18207078 2:0.0065966895 3:44 
32768 1:0.18207078 2:0.0065966895 3:51 
32768 1:0.18207078 2:0.0065966895 3:54 
32768 1:0.18207078 2:0.0065966895 3:50 
32768 1:0.18207078 2:0.0065966895 3:47 
32768 1:0.18207078 2:0.0065966895 3:47 
25263.47979400487 1:0.18207078 2:0.0065966895 3:38 
32768 1:0.24970669 2:0.026740097 3:95 
32768 1:0.24970669 2:0.026740097 3:96 
31817.43792476638 1:0.24970669 2:0.026740097 3:91 
32768 1:0.24970669 2:0.026740097 3:101 
32768 1:0.24970669 2:0.026740097 3:98 
32768 1:0.24970669 2:0.026740097 3:98 
32768 1:0.24970669 2:0.026740097 3:96 
32768 1:0.18207078 2:0.0065966895 3:41 
32768 1:0.18207078 2:0.0065966895 3:44 
32768 1:0.18207078 2:0.0065966895 3:43 
32768 1:0.18207078 2:0.0065966895 3:43 
7.501466489656551 1:0.87404855 2:0.65049881 3:101 
32768 1:0.24970669 2:0.026740097 3:91 
32768 1:0.24970669 2:0.026740097 3:91 
7949.710803902444 1:0.24970669 2:0.026740097 3:83 
32768 1:0.24970669 2:0.026740097 3:84 
5.694290960445075 1:0.87404855 2:0.65049881 3:106 
32768 1:0.24970669 2:0.026740097 3:91 
32768 1:0.24970669 2:0.026740097 3:87 
503.297962410506 1:0.24970669 2:0.026740097 3:86 
32725.82783738851 1:0.24970669 2:0.026740097 3:84 
32768 1:0.24970669 2:0.026740097 3:86 
17634.94048661444 1:0.24970669 2:0.026740097 3:89 
32768 1:0.24970669 2:0.026740097 3:86 
32768 1:0.24970669 2:0.026740097 3:83 
28986.3258081343 1:0.24970669 2:0.026740097 3:82 
32768 1:0.28182156 2:0.038473402 3:67 
32768 1:0.28182156 2:0.038473402 3:60 
1033.907749417329 1:0.28182156 2:0.038473402 3:61 
22442.64042971114 1:0.28182156 2:0.038473402 3:65 
32768 1:0.28182156 2:0.038473402 3:65 
30508.04040028673 1:0.28182156 2:0.038473402 3:64 
32768 1:0.28182156 2:0.038473402 3:60 
3599.127695701342 1:0.28182156 2:0.038473402 3:56 
11000.23777774435 1:0.28182156 2:0.038473402 3:62 
32768 1:0.28182156 2:0.038473402 3:64 
32768 1:0.28182156 2:0.038473402 3:66 
29806.42150358319 1:0.28182156 2:0.038473402 3:54 
32768 1:0.28182156 2:0.038473402 3:60 
32768 1:0.28182156 2:0.038473402 3:66 
32768 1:0.28182156 2:0.038473402 3:67 
32768 1:0.28182156 2:0.038473402 3:54 
32768 1:0.28182156 2:0.038473402 3:65 
32768 1:0.28182156 2:0.038473402 3:65 
32768 1:0.28182156 2:0.038473402 3:65 
19290.55583564262 1:0.28182156 2:0.038473402 3:63 
12522.64552761939 1:0.28182156 2:0.038473402 3:65 
19583.4458877647 1:0.28182156 2:0.038473402 3:70 
32768 1:0.28182156 2:0.038473402 3:56 
32768 1:0.28182156 2:0.038473402 3:56 
32768 1:0.28182156 2:0.038473402 3:55 
32768 1:0.28182156 2:0.038473402 3:62 
31464.68971305234 1:0.28182156 2:0.038473402 3:70 
12628.56315226279 1:0.28182156 2:0.038473402 3:81 
32768 1:0.28182156 2:0.038473402 3:45 
32768 1:0.28182156 2:0.038473402 3:51 
32768 1:0.28182156 2:0.038473402 3:54 
32768 1:0.28182156 2:0.038473402 3:60 
32768 1:0.28182156 2:0.038473402 3:67 
31658.5783056851 1:0.40966945 2:0.13989681 3:62 
15232.21934215825 1:0.28182156 2:0.038473402 3:40 
32768 1:0.28182156 2:0.038473402 3:44 
32768 1:0.28182156 2:0.038473402 3:50 
32768 1:0.28182156 2:0.038473402 3:54 
32768 1:0.28182156 2:0.038473402 3:59 
32768 1:0.28182156 2:0.038473402 3:63 
28543.57541079418 1:0.40966945 2:0.13989681 3:70 
32768 1:0.40966945 2:0.13989681 3:70 
1204.461252494224 1:0.28182156 2:0.038473402 3:36 
25586.37810984534 1:0.28182156 2:0.038473402 3:36 
32768 1:0.28182156 2:0.038473402 3:45 
32768 1:0.28182156 2:0.038473402 3:55 
12238.78614238779 1:0.40966945 2:0.13989681 3:61 
32768 1:0.40966945 2:0.13989681 3:65 
14178.95807421882 1:0.40966945 2:0.13989681 3:60 
21528.20870058087 1:0.28182156 2:0.038473402 3:58 
32768 1:0.28182156 2:0.038473402 3:58 
32471.22791181232 1:0.28182156 2:0.038473402 3:57 
32768 1:0.28182156 2:0.038473402 3:54 
32768 1:0.40966945 2:0.13989681 3:62 
32768 1:0.28182156 2:0.038473402 3:58 
32768 1:0.28182156 2:0.038473402 3:59 
32768 1:0.28182156 2:0.038473402 3:61 
32768 1:0.28182156 2:0.038473402 3:62 
32768 1:0.28182156 2:0.038473402 3:61 
32768 1:0.28182156 2:0.038473402 3:59 
31984.78633934889 1:0.40966945 2:0.13989681 3:59 
5827.969660039878 1:0.28182156 2:0.038473402 3:53 
32768 1:0.28182156 2:0.038473402 3:53 
32768 1:0.28182156 2:0.038473402 3:56 
32768 1:0.28182156 2:0.038473402 3:59 
32768 1:0.28182156 2:0.038473402 3:61 
32768 1:0.28182156 2:0.038473402 3:61 
32768 1:0.28182156 2:0.038473402 3:60 
32768 1:0.28182156 2:0.038473402 3:58 
8765.930257214097 1:0.40966945 2:0.13989681 3:64 
16669.89906926322 1:0.28182156 2:0.038473402 3:48 
32768 1:0.28182156 2:0.038473402 3:51 
32768 1:0.28182156 2:0.038473402 3:55 
32768 1:0.28182156 2:0.038473402 3:58 
32768 1:0.28182156 2:0.038473402 3:58 
32768 1:0.28182156 2:0.038473402 3:57 
32768 1:0.28182156 2:0.038473402 3:56 
32768 1:0.28182156 2:0.038473402 3:40 
32768 1:0.28182156 2:0.038473402 3:45 
32768 1:0.28182156 2:0.038473402 3:48 
19207.26534713723 1:0.28182156 2:0.038473402 3:47 
4004.52536991353 1:0.28182156 2:0.038473402 3:49 
32768 1:0.28182156 2:0.038473402 3:53 
32768 1:0.28182156 2:0.038473402 3:38 
32768 1:0.28182156 2:0.038473402 3:41 
32768 1:0.28182156 2:0.038473402 3:42 
32768 1:0.28182156 2:0.038473402 3:40 
32768 1:0.28182156 2:0.038473402 3:42 
32768 1:0.28182156 2:0.038473402 3:48 
7037.957177591485 1:0.28182156 2:0.038473402 3:33 
1922.51673213197 1:0.28182156 2:0.038473402 3:30 
32768 1:0.18543131 2:0.0084646531 3:52 
32768 1:0.18543131 2:0.0084646531 3:51 
32768 1:0.18543131 2:0.0084646531 3:49 
32768 1:0.18543131 2:0.0084646531 3:59 
32768 1:0.18543131 2:0.0084646531 3:58 
32768 1:0.18543131 2:0.0084646531 3:54 
32768 1:0.18543131 2:0.0084646531 3:54 
126.6596628444995 1:0.28503727 2:0.054627443 3:27 
32768 1:0.18543131 2:0.0084646531 3:51 
32768 1:0.18543131 2:0.0084646531 3:52 
15154.67960938005 1:0.40966945 2:0.13989681 3:58 
32768 1:0.18543131 2:0.0084646531 3:57 
32768 1:0.18543131 2:0.0084646531 3:58 
32768 1:0.18543131 2:0.0084646531 3:60 
32768 1:0.18543131 2:0.0084646531 3:58 
32768 1:0.18543131 2:0.0084646531 3:57 
32768 1:0.18543131 2:0.0084646531 3:61 
32768 1:0.18543131 2:0.0084646531 3:63 
32768 1:0.18543131 2:0.0084646531 3:68 
32768 1:0.18543131 2:0.0084646531 3:63 
32768 1:0.18543131 2:0.0084646531 3:61 
31621.00416772768 1:0.18543131 2:0.0084646531 3:59 
32768 1:0.18543131 2:0.0084646531 3:77 
32768 1:0.18543131 2:0.0084646531 3:75 
32768 1:0.18543131 2:0.0084646531 3:69 
32768 1:0.18543131 2:0.0084646531 3:74 
32768 1:0.18543131 2:0.0084646531 3:76 
32768 1:0.18543131 2:0.0084646531 3:82 
32768 1:0.18543131 2:0.0084646531 3:68 
32768 1:0.18543131 2:0.0084646531 3:67 
32768 1:0.18543131 2:0.0084646531 3:82 
12072.18613763025 1:0.40966945 2:0.13989681 3:37 
32768 1:0.18543131 2:0.0084646531 3:91 
32768 1:0.18543131 2:0.0084646531 3:93 
32768 1:0.18543131 2:0.0084646531 3:94 
32768 1:0.18543131 2:0.0084646531 3:102 
32768 1:0.18543131 2:0.0084646531 3:101 
32768 1:0.18543131 2:0.0084646531 3:92 
32768 1:0.18543131 2:0.0084646531 3:82 
32768 1:0.16211441 2:0.00028210744 3:33 
23551.18403236481 1:0.16211441 2:0.00028210744 3:32 
8219.118472233842 1:0.18543131 2:0.0084646531 3:107 
32768 1:0.18543131 2:0.0084646531 3:109 
32768 1:0.18543131 2:0.0084646531 3:111 
19734.03220306577 1:0.18543131 2:0.0084646531 3:118 
32768 1:0.18543131 2:0.0084646531 3:113 
32768 1:0.18543131 2:0.0084646531 3:99 
32768 1:0.18543131 2:0.0084646531 3:98 
32768 1:0.16211441 2:0.00028210744 3:40 
32768 1:0.16211441 2:0.00028210744 3:38 
32768 1:0.16211441 2:0.00028210744 3:38 
32768 1:0.16211441 2:0.00028210744 3:38 
32768 1:0.16211441 2:0.00028210744 3:39 
3121.271597343914 1:0.28503727 2:0.054627443 3:28 
4016.366350279231 1:0.40966945 2:0.13989681 3:45 
32768 1:0.18543131 2:0.0084646531 3:102 
32768 1:0.18543131 2:0.0084646531 3:106 
32768 1:0.18543131 2:0.0084646531 3:117 
32768 1:0.18543131 2:0.0084646531 3:125 
32768 1:0.18543131 2:0.0084646531 3:125 
32768 1:0.18543131 2:0.0084646531 3:116 
32768 1:0.18543131 2:0.0084646531 3:115 
32768 1:0.16211441 2:0.00028210744 3:44 
32768 1:0.16211441 2:0.00028210744 3:44 
32768 1:0.16211441 2:0.00028210744 3:43 
32768 1:0.16211441 2:0.00028210744 3:42 
32768 1:0.16211441 2:0.00028210744 3:42 
32768 1:0.16211441 2:0.00028210744 3:41 
32768 1:0.16211441 2:0.00028210744 3:42 
27928.2866880803 1:0.28503727 2:0.054627443 3:37 
32768 1:0.28503727 2:0.054627443 3:37 
1844.272924000229 1:0.28503727 2:0.054627443 3:34 
26034.12935608431 1:0.40966945 2:0.13989681 3:47 
32768 1:0.18543131 2:0.0084646531 3:92 
32768 1:0.18543131 2:0.0084646531 3:102 
32768 1:0.18543131 2:0.0084646531 3:114 
32768 1:0.18543131 2:0.0084646531 3:122 
32768 1:0.18543131 2:0.0084646531 3:123 
32768 1:0.18543131 2:0.0084646531 3:116 
32768 1:0.16211441 2:0.00028210744 3:45 
32768 1:0.16211441 2:0.00028210744 3:46 
32768 1:0.16211441 2:0.00028210744 3:45 
32768 1:0.16211441 2:0.00028210744 3:45 
32768 1:0.16211441 2:0.00028210744 3:46 
32768 1:0.16211441 2:0.00028210744 3:44 
32768 1:0.16211441 2:0.00028210744 3:47 
11005.98623933936 1:0.40966945 2:0.13989681 3:42 
32768 1:0.18543131 2:0.0084646531 3:75 
32768 1:0.18543131 2:0.0084646531 3:90 
32768 1:0.18543131 2:0.0084646531 3:99 
32768 1:0.18543131 2:0.0084646531 3:113 
32768 1:0.18543131 2:0.0084646531 3:106 
32768 1:0.16211441 2:0.00028210744 3:43 
32768 1:0.16211441 2:0.00028210744 3:45 
32768 1:0.16211441 2:0.00028210744 3:46 
32768 1:0.16211441 2:0.00028210744 3:47 
32768 1:0.16211441 2:0.00028210744 3:48 
32768 1:0.16211441 2:0.00028210744 3:46 
32768 1:0.16211441 2:0.00028210744 3:49 
32768 1:0.18543131 2:0.0084646531 3:62 
32768 1:0.18543131 2:0.0084646531 3:68 
12232.04960307263 1:0.18543131 2:0.0084646531 3:79 
32768 1:0.18543131 2:0.0084646531 3:96 
32768 1:0.18543131 2:0.0084646531 3:111 
32768 1:0.16211441 2:0.00028210744 3:40 
32768 1:0.16211441 2:0.00028210744 3:42 
32768 1:0.16211441 2:0.00028210744 3:41 
32768 1:0.16211441 2:0.00028210744 3:37 
17164.21897291718 1:0.28503727 2:0.054627443 3:38 
28020.79789845492 1:0.28503727 2:0.054627443 3:35 
4452.221475764192 1:0.40966945 2:0.13989681 3:54 
530.9836835053288 1:0.40966945 2:0.13989681 3:53 
32768 1:0.18543131 2:0.0084646531 3:68 
32768 1:0.18543131 2:0.0084646531 3:76 
24657.50257803382 1:0.16211441 2:0.00028210744 3:36 
32768 1:0.16211441 2:0.00028210744 3:40 
32768 1:0.16211441 2:0.00028210744 3:42 
32768 1:0.16211441 2:0.00028210744 3:41 
32768 1:0.16211441 2:0.00028210744 3:41 
32768 1:0.28503727 2:0.054627443 3:37 
7140.496800579137 1:0.40966945 2:0.13989681 3:36 
25422.18428686676 1:0.28503727 2:0.054627443 3:36 
32768 1:0.40966945 2:0.13989681 3:36 
32768 1:0.40966945 2:0.13989681 3:53 
32768 1:0.28503727 2:0.054627443 3:38 
32768 1:0.16965048 2:0.0030041653 3:44 
22997.66886245251 1:0.28503727 2:0.054627443 3:41 
32768 1:0.28503727 2:0.054627443 3:35 
32768 1:0.16965048 2:0.0030041653 3:45 
32768 1:0.16965048 2:0.0030041653 3:45 
32768 1:0.28503727 2:0.054627443 3:36 
30938.43193338214 1:0.16965048 2:0.0030041653 3:43 
32768 1:0.16965048 2:0.0030041653 3:43 
32768 1:0.16965048 2:0.0030041653 3:42 
25957.30183550578 1:0.16965048 2:0.0030041653 3:41 
32768 1:0.16965048 2:0.0030041653 3:41 
963.0226048543893 1:0.28503727 2:0.054627443 3:45 
13730.90625888731 1:0.28503727 2:0.054627443 3:42 
32182.56727221543 1:0.16965048 2:0.0030041653 3:40 
32768 1:0.16965048 2:0.0030041653 3:42 
32768 1:0.16965048 2:0.0030041653 3:43 
32768 1:0.16965048 2:0.0030041653 3:43 
32768 1:0.16965048 2:0.0030041653 3:42 
32768 1:0.16965048 2:0.0030041653 3:44 
32768 1:0.16965048 2:0.0030041653 3:45 
32768 1:0.28503727 2:0.054627443 3:42 
3177.912256943308 1:0.16965048 2:0.0030041653 3:31 
32768 1:0.16965048 2:0.0030041653 3:42 
17699.85358521813 1:0.16965048 2:0.0030041653 3:43 
32768 1:0.16965048 2:0.0030041653 3:41 
32768 1:0.16965048 2:0.0030041653 3:40 
32768 1:0.28503727 2:0.054627443 3:45 
404.0342443215496 1:0.16965048 2:0.0030041653 3:34 
32768 1:0.16965048 2:0.0030041653 3:40 
32768 1:0.16965048 2:0.0030041653 3:39 
32768 1:0.16965048 2:0.0030041653 3:39 
5906.687102701657 1:0.28503727 2:0.054627443 3:55 
20799.54598651152 1:0.28503727 2:0.054627443 3:56 
32768 1:0.16965048 2:0.0030041653 3:29 
32768 1:0.16965048 2:0.0030041653 3:34 
27959.41247809839 1:0.28503727 2:0.054627443 3:56 
32768 1:0.28503727 2:0.054627443 3:59 
32768 1:0.28503727 2:0.054627443 3:55 
32768 1:0.28503727 2:0.054627443 3:59 
32768 1:0.28503727 2:0.054627443 3:55 
32768 1:0.28503727 2:0.054627443 3:45 
32768 1:0.28503727 2:0.054627443 3:42 
32768 1:0.28503727 2:0.054627443 3:42 
30539.72102562695 1:0.28503727 2:0.054627443 3:39 
32768 1:0.28503727 2:0.054627443 3:41 
17561.59457737187 1:0.28503727 2:0.054627443 3:33 
32768 1:0.28503727 2:0.054627443 3:38 
32768 1:0.28503727 2:0.054627443 3:37 
32768 1:0.28503727 2:0.054627443 3:45 
32768 1:0.28503727 2:0.054627443 3:39 
3174.199688746799 1:0.28503727 2:0.054627443 3:41 
32768 1:0.28503727 2:0.054627443 3:38 
32768 1:0.28503727 2:0.054627443 3:34 
32768 1:0.28503727 2:0.054627443 3:35 
32768 1:0.28503727 2:0.054627443 3:33 
32768 1:0.28503727 2:0.054627443 3:36 
32768 1:0.28503727 2:0.054627443 3:42 
3289.238579012203 1:0.28503727 2:0.054627443 3:31 
1654.521336299864 1:0.28503727 2:0.054627443 3:29 
32768 1:0.28503727 2:0.054627443 3:37 
27311.31463209527 1:0.28503727 2:0.054627443 3:30 
27822.60044882322 1:0.28503727 2:0.054627443 3:32 
19119.44291143212 1:0.42317173 2:0.14771207 3:71 
3076.273057577223 1:0.42317173 2:0.14771207 3:96 
25821.3775675434 1:0.42317173 2:0.14771207 3:98 
11420.28957536185 1:0.42317173 2:0.14771207 3:97 
7738.757533503102 1:0.42317173 2:0.14771207 3:91 
32768 1:0.42317173 2:0.14771207 3:68 
0.2430388783032704 1:0.53210614 2:0.24586275 3:25 
2061.4521791316 1:0.42317173 2:0.14771207 3:117 
551.6408344720389 1:0.42317173 2:0.14771207 3:118 
5600.353967033961 1:0.42317173 2:0.14771207 3:135 
620.8565231397732 1:0.42317173 2:0.14771207 3:113 
10638.62886569365 1:0.42317173 2:0.14771207 3:123 
8622.324697907554 1:0.42317173 2:0.14771207 3:134 
1252.520299353328 1:0.42317173 2:0.14771207 3:130 
6353.599219058197 1:0.42317173 2:0.14771207 3:109 
702.4670158901766 1:0.28045055 2:0.0037155309 3:192 
0.3432923260239313 1:0.53210614 2:0.24586275 3:26 
4.970278959428647 1:0.53210614 2:0.24586275 3:27 
32768 1:0.20682439 2:0.013106159 3:108 
32768 1:0.20682439 2:0.013106159 3:89 
32768 1:0.20682439 2:0.013106159 3:129 
32768 1:0.20682439 2:0.013106159 3:107 
32768 1:0.20682439 2:0.013106159 3:66 
32768 1:0.20682439 2:0.013106159 3:75 
32768 1:0.20682439 2:0.013106159 3:70 
32768 1:0.20682439 2:0.013106159 3:52 
32768 1:0.20682439 2:0.013106159 3:64 
32768 1:0.20682439 2:0.013106159 3:80 
32768 1:0.20682439 2:0.013106159 3:79 
32768 1:0.20682439 2:0.013106159 3:80 
32768 1:0.20682439 2:0.013106159 3:69 
32768 1:0.20682439 2:0.013106159 3:114 
32768 1:0.20682439 2:0.013106159 3:76 
32768 1:0.20682439 2:0.013106159 3:124 
32768 1:0.20682439 2:0.013106159 3:98 
32768 1:0.20682439 2:0.013106159 3:43 
32768 1:0.20682439 2:0.013106159 3:132 
32768 1:0.20682439 2:0.013106159 3:123 
32768 1:0.20682439 2:0.013106159 3:90 
32768 1:0.20682439 2:0.013106159 3:125 
12045.17177621992 1:0.20682439 2:0.013106159 3:133 
29692.0243829971 1:0.20682439 2:0.013106159 3:133 
32768 1:0.20682439 2:0.013106159 3:121 
32768 1:0.20682439 2:0.013106159 3:95 
32768 1:0.20682439 2:0.013106159 3:63 
32768 1:0.20682439 2:0.013106159 3:41 
32768 1:0.20682439 2:0.013106159 3:109 
32768 1:0.20682439 2:0.013106159 3:108 
32768 1:0.20682439 2:0.013106159 3:114 
32768 1:0.20682439 2:0.013106159 3:121 
32768 1:0.20682439 2:0.013106159 3:124 
32768 1:0.20682439 2:0.013106159 3:91 
32768 1:0.20682439 2:0.013106159 3:83 
32768 1:0.20682439 2:0.013106159 3:69 
32768 1:0.16666667 3:37 
32768 1:0.16666667 3:35 
14131.62389046753 1:0.4386317 2:0.14148566 3:32 
32768 1:0.16666667 3:38 
32768 1:0.16666667 3:31 
32768 1:0.16666667 3:28 
13965.99087598938 1:0.4386317 2:0.14148566 3:30 
32768 1:0.16666667 3:30 
28085.3418662229 1:0.16666667 3:29 
32768 1:0.16666667 3:35 
32768 1:0.16666667 3:37 
983.3570118975809 1:0.61522221 2:0.32790409 3:93 
991.1998985745265 1:0.61522221 2:0.32790409 3:94 
1664.889063655341 1:0.61522221 2:0.32790409 3:91 
724.618540826101 1:0.61522221 2:0.32790409 3:105 
208.7331429230908 1:0.61522221 2:0.32790409 3:92 
1128.452811093206 1:0.61522221 2:0.32790409 3:90 
614.0198048559531 1:0.61522221 2:0.32790409 3:88 
391.1413970442898 1:0.61522221 2:0.32790409 3:86 
849.242959318176 1:0.61522221 2:0.32790409 3:82 
32768 1:0.20418783 2:0.015413682 3:69 
32768 1:0.20418783 2:0.015413682 3:90 
20771.95407758315 1:0.20418783 2:0.015413682 3:85 
32768 1:0.20418783 2:0.015413682 3:69 
32768 1:0.20418783 2:0.015413682 3:64 
32768 1:0.20418783 2:0.015413682 3:62 
32768 1:0.20418783 2:0.015413682 3:108 
32768 1:0.20418783 2:0.015413682 3:111 
32768 1:0.20418783 2:0.015413682 3:106 
32768 1:0.20418783 2:0.015413682 3:108 
32768 1:0.20418783 2:0.015413682 3:92 
31414.83175528075 1:0.20418783 2:0.015413682 3:77 
32768 1:0.20418783 2:0.015413682 3:75 
32768 1:0.20418783 2:0.015413682 3:126 
32768 1:0.20418783 2:0.015413682 3:120 
32768 1:0.20418783 2:0.015413682 3:120 
32768 1:0.20418783 2:0.015413682 3:123 
32768 1:0.20418783 2:0.015413682 3:110 
23532.50222087215 1:0.20418783 2:0.015413682 3:107 
32768 1:0.20418783 2:0.015413682 3:107 
32768 1:0.20418783 2:0.015413682 3:107 
32768 1:0.20418783 2:0.015413682 3:103 
32768 1:0.20418783 2:0.015413682 3:96 
32768 1:0.20418783 2:0.015413682 3:94 
32768 1:0.20418783 2:0.015413682 3:96 
32768 1:0.20418783 2:0.015413682 3:104 
32768 1:0.20418783 2:0.015413682 3:88 
32768 1:0.20418783 2:0.015413682 3:68 
32768 1:0.20418783 2:0.015413682 3:112 
32768 1:0.20418783 2:0.015413682 3:115 
32768 1:0.20418783 2:0.015413682 3:118 
32768 1:0.20418783 2:0.015413682 3:107 
32768 1:0.20418783 2:0.015413682 3:101 
32768 1:0.20418783 2:0.015413682 3:102 
32768 1:0.20418783 2:0.015413682 3:103 
32768 1:0.20418783 2:0.015413682 3:95 
32768 1:0.20418783 2:0.015413682 3:96 
32768 1:0.20418783 2:0.015413682 3:97 
32768 1:0.20418783 2:0.015413682 3:61 
24983.87487663584 1:0.20418783 2:0.015413682 3:139 
32768 1:0.20418783 2:0.015413682 3:113 
32768 1:0.20418783 2:0.015413682 3:123 
32768 1:0.20418783 2:0.015413682 3:117 
32768 1:0.20418783 2:0.015413682 3:109 
32768 1:0.20418783 2:0.015413682 3:108 
32768 1:0.20418783 2:0.015413682 3:112 
32768 1:0.20418783 2:0.015413682 3:112 
32768 1:0.20418783 2:0.015413682 3:109 
32768 1:0.20418783 2:0.015413682 3:117 
32768 1:0.20418783 2:0.015413682 3:89 
32768 1:0.20418783 2:0.015413682 3:68 
14018.02350919938 1:0.25008715 2:0.034603202 3:122 
32768 1:0.25008715 2:0.034603202 3:87 
32768 1:0.16666667 2:1.2924697e-24 3:63 
32768 1:0.16666667 2:1.2924697e-24 3:68 
32768 1:0.16666667 2:1.2924697e-24 3:81 
32768 1:0.20418783 2:0.015413682 3:122 
26952.13564739973 1:0.20418783 2:0.015413682 3:142 
32768 1:0.20418783 2:0.015413682 3:145 
32768 1:0.20418783 2:0.015413682 3:123 
25617.80329117451 1:0.20418783 2:0.015413682 3:121 
32768 1:0.20418783 2:0.015413682 3:120 
32768 1:0.20418783 2:0.015413682 3:117 
32768 1:0.20418783 2:0.015413682 3:111 
32768 1:0.20418783 2:0.015413682 3:110 
32768 1:0.20418783 2:0.015413682 3:119 
32768 1:0.20418783 2:0.015413682 3:115 
32768 1:0.20418783 2:0.015413682 3:107 
32768 1:0.20418783 2:0.015413682 3:120 
32768 1:0.20418783 2:0.015413682 3:108 
32768 1:0.20418783 2:0.015413682 3:90 
32768 1:0.25008715 2:0.034603202 3:71 
32768 1:0.16666667 2:1.2924697e-24 3:54 
32768 1:0.16666667 2:1.2924697e-24 3:58 
32768 1:0.16666667 2:1.2924697e-24 3:64 
32768 1:0.16666667 2:1.2924697e-24 3:60 
32768 1:0.16666667 2:1.2924697e-24 3:68 
32768 1:0.20418783 2:0.015413682 3:122 
32768 1:0.20418783 2:0.015413682 3:125 
25835.81593643661 1:0.20418783 2:0.015413682 3:139 
27477.74428556821 1:0.20418783 2:0.015413682 3:135 
13001.6514822847 1:0.20418783 2:0.015413682 3:127 
32768 1:0.20418783 2:0.015413682 3:123 
32768 1:0.20418783 2:0.015413682 3:121 
32768 1:0.20418783 2:0.015413682 3:113 
32768 1:0.20418783 2:0.015413682 3:108 
32768 1:0.20418783 2:0.015413682 3:119 
32768 1:0.20418783 2:0.015413682 3:135 
25981.94898287186 1:0.20418783 2:0.015413682 3:121 
3166.792080564785 1:0.20418783 2:0.015413682 3:124 
32768 1:0.20418783 2:0.015413682 3:123 
32768 1:0.20418783 2:0.015413682 3:119 
32768 1:0.20418783 2:0.015413682 3:113 
32768 1:0.20418783 2:0.015413682 3:105 
32768 1:0.20418783 2:0.015413682 3:96 
9020.589475626566 1:0.20418783 2:0.015413682 3:80 
32768 1:0.25008715 2:0.034603202 3:69 
32768 1:0.25008715 2:0.034603202 3:71 
32768 1:0.16666667 2:1.2924697e-24 3:63 
32768 1:0.16666667 2:1.2924697e-24 3:45 
32768 1:0.16666667 2:1.2924697e-24 3:50 
32768 1:0.16666667 2:1.2924697e-24 3:56 
32768 1:0.20418783 2:0.015413682 3:118 
32768 1:0.20418783 2:0.015413682 3:111 
32768 1:0.20418783 2:0.015413682 3:117 
2608.245189742181 1:0.20418783 2:0.015413682 3:129 
32768 1:0.20418783 2:0.015413682 3:143 
32768 1:0.20418783 2:0.015413682 3:144 
32768 1:0.20418783 2:0.015413682 3:122 
32768 1:0.20418783 2:0.015413682 3:118 
32768 1:0.20418783 2:0.015413682 3:109 
32768 1:0.20418783 2:0.015413682 3:113 
32768 1:0.20418783 2:0.015413682 3:114 
32768 1:0.20418783 2:0.015413682 3:114 
28032.72652008847 1:0.20418783 2:0.015413682 3:116 
32768 1:0.20418783 2:0.015413682 3:118 
32768 1:0.20418783 2:0.015413682 3:115 
32768 1:0.20418783 2:0.015413682 3:109 
32768 1:0.20418783 2:0.015413682 3:80 
32768 1:0.25008715 2:0.034603202 3:59 
22010.69112383646 1:0.16666667 2:1.2924697e-24 3:84 
32768 1:0.16666667 2:1.2924697e-24 3:71 
32768 1:0.16666667 2:1.2924697e-24 3:61 
32768 1:0.16666667 2:1.2924697e-24 3:37 
32768 1:0.20418783 2:0.015413682 3:103 
32768 1:0.20418783 2:0.015413682 3:100 
32768 1:0.20418783 2:0.015413682 3:113 
32768 1:0.20418783 2:0.015413682 3:129 
19953.3583627095 1:0.20418783 2:0.015413682 3:137 
20796.54747657768 1:0.20418783 2:0.015413682 3:138 
32767.90605800973 1:0.20418783 2:0.015413682 3:142 
28963.12219238228 1:0.20418783 2:0.015413682 3:137 
32768 1:0.20418783 2:0.015413682 3:126 
27245.48299417051 1:0.20418783 2:0.015413682 3:124 
22670.60218280704 1:0.20418783 2:0.015413682 3:130 
26282.92255410505 1:0.20418783 2:0.015413682 3:127 
32768 1:0.20418783 2:0.015413682 3:125 
32768 1:0.20418783 2:0.015413682 3:119 
32768 1:0.20418783 2:0.015413682 3:114 
32768 1:0.20418783 2:0.015413682 3:110 
32768 1:0.20418783 2:0.015413682 3:102 
32768 1:0.20418783 2:0.015413682 3:93 
21193.44829738585 1:0.16666667 2:1.2924697e-24 3:102 
32768 1:0.16666667 2:1.2924697e-24 3:103 
23.89131771021503 1:0.20418783 2:0.015413682 3:85 
32768 1:0.20418783 2:0.015413682 3:96 
32768 1:0.20418783 2:0.015413682 3:108 
32768 1:0.20418783 2:0.015413682 3:113 
32768 1:0.20418783 2:0.015413682 3:114 
32768 1:0.20418783 2:0.015413682 3:114 
30030.96262445608 1:0.20418783 2:0.015413682 3:130 
22692.67727351799 1:0.20418783 2:0.015413682 3:128 
32768 1:0.20418783 2:0.015413682 3:144 
32768 1:0.20418783 2:0.015413682 3:128 
32768 1:0.20418783 2:0.015413682 3:131 
32768 1:0.20418783 2:0.015413682 3:129 
32768 1:0.20418783 2:0.015413682 3:126 
32768 1:0.20418783 2:0.015413682 3:122 
32768 1:0.20418783 2:0.015413682 3:113 
32768 1:0.20418783 2:0.015413682 3:104 
16792.0074231939 1:0.20418783 2:0.015413682 3:76 
32768 1:0.25008715 2:0.034603202 3:67 
32768 1:0.25008715 2:0.034603202 3:62 
32768 1:0.20418783 2:0.015413682 3:60 
32768 1:0.20418783 2:0.015413682 3:61 
20417.43621188059 1:0.20418783 2:0.015413682 3:74 
32768 1:0.20418783 2:0.015413682 3:87 
32768 1:0.20418783 2:0.015413682 3:100 
32768 1:0.20418783 2:0.015413682 3:105 
32768 1:0.20418783 2:0.015413682 3:110 
32768 1:0.20418783 2:0.015413682 3:110 
18.9113776376782 1:0.20418783 2:0.015413682 3:107 
32768 1:0.20418783 2:0.015413682 3:111 
32768 1:0.20418783 2:0.015413682 3:122 
32768 1:0.20418783 2:0.015413682 3:128 
32768 1:0.20418783 2:0.015413682 3:131 
32768 1:0.20418783 2:0.015413682 3:126 
32768 1:0.20418783 2:0.015413682 3:131 
7090.110637815857 1:0.20418783 2:0.015413682 3:134 
32768 1:0.20418783 2:0.015413682 3:131 
32768 1:0.20418783 2:0.015413682 3:125 
32768 1:0.20418783 2:0.015413682 3:113 
32768 1:0.20418783 2:0.015413682 3:102 
16732.47795175491 1:0.20418783 2:0.015413682 3:75 
32768 1:0.20418783 2:0.015413682 3:64 
32768 1:0.20418783 2:0.015413682 3:90 
32768 1:0.20418783 2:0.015413682 3:101 
32768 1:0.20418783 2:0.015413682 3:103 
32768 1:0.20418783 2:0.015413682 3:100 
32768 1:0.20418783 2:0.015413682 3:109 
32768 1:0.20418783 2:0.015413682 3:125 
32768 1:0.20418783 2:0.015413682 3:131 
32768 1:0.20418783 2:0.015413682 3:125 
32768 1:0.20418783 2:0.015413682 3:104 
32768 1:0.20418783 2:0.015413682 3:112 
